{"gradients/fc_layers.9.weight":{"bins":[-0.016209907829761505,-0.01569129340350628,-0.015172678977251053,-0.014654065482318401,-0.014135451056063175,-0.013616836629807949,-0.013098223134875298,-0.012579608708620071,-0.012060994282364845,-0.01154237985610962,-0.011023765429854393,-0.010505151934921741,-0.009986537508666515,-0.00946792308241129,-0.008949309587478638,-0.008430695161223412,-0.007912080734968185,-0.007393466308712959,-0.0068748523481190205,-0.006356238387525082,-0.0058376239612698555,-0.005319009535014629,-0.0048003955744206905,-0.004281781613826752,-0.0037631671875715256,-0.003244552994146943,-0.0027259388007223606,-0.002207324607297778,-0.0016887104138731956,-0.0011700962204486132,-0.0006514820270240307,-0.0001328678335994482,0.0003857463598251343,0.0009043605532497168,0.0014229747466742992,0.0019415889400988817,0.002460203133523464,0.0029788173269480467,0.003497431520372629,0.004016045480966568,0.004534659907221794,0.00505327433347702,0.005571888294070959,0.006090502254664898,0.006609116680920124,0.00712773110717535,0.007646345067769289,0.008164959028363228,0.008683573454618454,0.00920218788087368,0.009720802307128906,0.010239415802061558,0.010758030228316784,0.01127664465457201,0.011795258149504662,0.012313872575759888,0.012832487002015114,0.01335110142827034,0.013869715854525566,0.014388329349458218,0.014906943775713444,0.01542555820196867,0.01594417169690132,0.016462786123156548,0.016981400549411774],"_type":"histogram","values":[1,0,0,0,0,0,0,0,0,0,0,1,0,0,0,0,0,0,0,0,1,0,0,0,0,0,0,0,0,1,1,55,1,2,0,0,0,0,0,0,0,0,0,0,0,0,0,0,0,0,0,0,0,0,0,0,0,0,0,0,0,0,0,1]},"gradients/multihead_attn.out_proj.bias":{"values":[32],"bins":[0,0],"_type":"histogram"},"gradients/numerical_layer.0.bias":{"_type":"histogram","values":[32],"bins":[0,0]},"parameters/dotw_emb.weight":{"bins":[-6.956465966447689e-41,2.9050614536535142e-33,5.8101229073070285e-33,8.71518417728955e-33,1.1620245814614057e-32,1.4525307451938563e-32,1.74303683545791e-32,2.0335430726587577e-32,2.3240491629228114e-32,2.614555400123659e-32,2.9050614903877127e-32,3.1955675806517664e-32,3.48607367091582e-32,3.776579761179874e-32,4.0670861453175153e-32,4.357592235581569e-32,4.648098325845623e-32,4.938604416109677e-32,5.229110800247318e-32,5.519616596637784e-32,5.810122980775425e-32,6.100628777165891e-32,6.391135161303533e-32,6.681641545441174e-32,6.97214734183164e-32,7.262653725969282e-32,7.553159522359748e-32,7.843665906497389e-32,8.134172290635031e-32,8.424678087025497e-32,8.715184471163138e-32,9.005690267553604e-32,9.296196651691246e-32,9.586703035828887e-32,9.877208832219353e-32,1.016771462860982e-31,1.0458221600494636e-31,1.0748727396885102e-31,1.1039233193275568e-31,1.1329740165160385e-31,1.162024596155085e-31,1.1910751757941317e-31,1.2201257554331783e-31,1.24917645262166e-31,1.2782270322607066e-31,1.3072776118997532e-31,1.3363283090882349e-31,1.3653788887272815e-31,1.394429468366328e-31,1.4234801655548097e-31,1.4525307451938563e-31,1.481581324832903e-31,1.5106319044719496e-31,1.5396826016604312e-31,1.5687331812994778e-31,1.5977837609385244e-31,1.6268344581270061e-31,1.6558850377660527e-31,1.6849356174050993e-31,1.713986314593581e-31,1.7430368942326276e-31,1.7720874738716742e-31,1.8011380535107208e-31,1.8301887506992025e-31,1.8592393303382491e-31],"_type":"histogram","values":[223,0,0,0,0,0,0,0,0,0,0,0,0,0,0,0,0,0,0,0,0,0,0,0,0,0,0,0,0,0,0,0,0,0,0,0,0,0,0,0,0,0,0,0,0,0,0,0,0,0,0,0,0,0,0,0,0,0,0,0,0,0,0,1]},"_wandb":{"runtime":1429},"parameters/bus_emb.weight":{"_type":"histogram","values":[1,0,1,4,5,4,6,10,19,28,27,32,29,24,23,57,50,67,73,98,98,122,150,176,206,265,541,1058,4.746312e+06,1077,535,319,220,175,158,109,89,90,85,54,57,52,37,29,22,32,38,27,10,12,6,5,5,0,1,2,1,1,0,0,1,0,0,1],"bins":[-0.00035055680200457573,-0.00033825545688159764,-0.00032595411175861955,-0.00031365276663564146,-0.00030135142151266336,-0.0002890500763896853,-0.0002767487312667072,-0.0002644473861437291,-0.000252146041020751,-0.00023984468134585768,-0.0002275433362228796,-0.0002152419910999015,-0.00020294063142500818,-0.0001906392863020301,-0.000178337941179052,-0.0001660365960560739,-0.0001537352509330958,-0.00014143390581011772,-0.00012913256068713963,-0.00011683120828820392,-0.00010452986316522583,-9.222851804224774e-05,-7.992716564331204e-05,-6.762582052033395e-05,-5.5324475397355855e-05,-4.302313027437776e-05,-3.0721781513420865e-05,-1.842043457145337e-05,-6.119087629485875e-06,6.182259312481619e-06,1.8483606254449114e-05,3.078495501540601e-05,4.308632924221456e-05,5.538767436519265e-05,6.768901948817074e-05,7.999037188710645e-05,9.229171701008454e-05,0.00010459306213306263,0.00011689441453199834,0.00012919575965497643,0.00014149710477795452,0.0001537984499009326,0.0001660997950239107,0.0001784011401468888,0.0001907024998217821,0.0002030038449447602,0.0002153051900677383,0.00022760653519071639,0.00023990788031369448,0.00025220922543667257,0.00026451057055965066,0.00027681191568262875,0.00028911326080560684,0.00030141460592858493,0.000313715951051563,0.0003260172961745411,0.0003383186412975192,0.00035062001552432775,0.00036292136064730585,0.00037522270577028394,0.00038752405089326203,0.0003998253960162401,0.0004121267411392182,0.0004244280862621963,0.0004367294313851744]},"gradients/city_emb.weight":{"values":[40736],"bins":[0,0],"_type":"histogram"},"parameters/city_emb.weight":{"values":[1,0,0,0,0,0,0,0,0,1,0,0,0,0,0,0,0,0,0,1,0,0,0,0,0,1,0,1,0,1,2,0,1,1,1,3,1,2,14,40671,9,3,3,4,0,1,0,2,0,0,2,1,2,1,1,0,1,0,1,0,0,1,1,1],"bins":[-0.00028722721617668867,-0.00027996639255434275,-0.0002727055689319968,-0.0002654447453096509,-0.000258183921687305,-0.00025092309806495905,-0.00024366227444261312,-0.0002364014508202672,-0.00022914062719792128,-0.00022187980357557535,-0.00021461897995322943,-0.0002073581563308835,-0.00020009733270853758,-0.00019283650908619165,-0.00018557568546384573,-0.0001783148618414998,-0.00017105403821915388,-0.00016379322914872319,-0.00015653240552637726,-0.00014927158190403134,-0.0001420107582816854,-0.0001347499346593395,-0.00012748911103699356,-0.00012022828013869002,-0.00011296746379230171,-0.00010570664016995579,-9.844581654760987e-05,-9.118499292526394e-05,-8.392416930291802e-05,-7.666334568057209e-05,-6.940252205822617e-05,-6.214169843588024e-05,-5.488087481353432e-05,-4.7620051191188395e-05,-4.035922756884247e-05,-3.3098403946496546e-05,-2.5837582143140025e-05,-1.85767585207941e-05,-1.1315935807942878e-05,-4.055112640344305e-06,3.2057105272542685e-06,1.0466534149600193e-05,1.7727357771946117e-05,2.4988179575302638e-05,3.224900137865916e-05,3.950982500100508e-05,4.677064862335101e-05,5.403147224569693e-05,6.129229586804286e-05,6.855311949038878e-05,7.58139431127347e-05,8.307476673508063e-05,9.033559035742655e-05,9.759641397977248e-05,0.0001048572376021184,0.00011211806122446433,0.00011937887757085264,0.00012663970119319856,0.00013390052481554449,0.0001411613484378904,0.00014842217206023633,0.00015568299568258226,0.00016294381930492818,0.0001702046429272741,0.00017746546654962003],"_type":"histogram"},"parameters/fc_layers.2.weight":{"values":[254,1,0,0,0,0,0,0,0,0,0,0,0,0,0,0,0,0,0,0,0,0,0,0,0,0,0,0,0,0,0,0,0,0,0,0,0,0,0,0,0,0,0,0,0,0,0,0,0,0,0,0,0,0,0,0,0,0,0,0,0,0,0,1],"bins":[-1.3658964545277624e-35,6.093433576244508e-31,1.2187003509833712e-30,1.8280573443422915e-30,2.437414243661664e-30,3.0467713310601323e-30,3.6561282303795045e-30,4.265485317777973e-30,4.8748424051764414e-30,5.4841991164167176e-30,6.093556203815186e-30,6.702913291213654e-30,7.31227000245393e-30,7.921627466010591e-30,8.530984177250867e-30,9.140340888491144e-30,9.749698352047804e-30,1.035905506328808e-29,1.0968412526844741e-29,1.1577769238085017e-29,1.2187125949325293e-29,1.2796483412881954e-29,1.340584012412223e-29,1.4015196835362506e-29,1.4624553546602783e-29,1.5233911762475828e-29,1.5843268473716104e-29,1.645262518495638e-29,1.7061981896196656e-29,1.7671338607436932e-29,1.8280696823309978e-29,1.8890053534550254e-29,1.949940874115776e-29,2.0108765452398037e-29,2.0718122163638313e-29,2.1327480379511358e-29,2.1936837090751635e-29,2.254619380199191e-29,2.3155550513232187e-29,2.3764907224472463e-29,2.4374265440345508e-29,2.4983622151585785e-29,2.559297886282606e-29,2.6202337078699106e-29,2.6811692285306613e-29,2.742105050117966e-29,2.8030405707787165e-29,2.863976392366021e-29,2.9249122139533256e-29,2.9858477346140763e-29,3.046783556201381e-29,3.1077190768621315e-29,3.168654898449436e-29,3.229590419110187e-29,3.290526240697491e-29,3.351462062284796e-29,3.4123975829455465e-29,3.473333404532851e-29,3.534268925193602e-29,3.595204746780906e-29,3.656140568368211e-29,3.7170760890289615e-29,3.778011910616266e-29,3.838947431277017e-29,3.899883252864321e-29],"_type":"histogram"},"gradients/doty_emb.weight":{"bins":[0,0],"_type":"histogram","values":[11744]},"parameters/doty_emb.weight":{"_type":"histogram","values":[1,0,0,0,0,0,0,0,0,1,1,0,0,1,0,0,0,2,1,0,1,1,2,3,11718,4,2,1,0,0,2,0,0,0,0,0,0,0,0,0,0,0,0,0,0,0,1,0,0,0,0,0,0,0,0,0,0,0,0,0,1,0,0,1],"bins":[-9.945199417416006e-05,-9.539679012959823e-05,-9.134159336099401e-05,-8.728638931643218e-05,-8.323119254782796e-05,-7.917598850326613e-05,-7.512078445870429e-05,-7.106558769010007e-05,-6.701038364553824e-05,-6.295517960097641e-05,-5.889998283237219e-05,-5.4844778787810355e-05,-5.078957838122733e-05,-4.67343779746443e-05,-4.267917393008247e-05,-3.8623973523499444e-05,-3.456877311691642e-05,-3.0513572710333392e-05,-2.6458370484760962e-05,-2.2403168259188533e-05,-1.8347967852605507e-05,-1.4292766536527779e-05,-1.0237565220450051e-05,-6.182363904372323e-06,-2.1271625882945955e-06,1.9280387277831323e-06,5.98324004386086e-06,1.0038441359938588e-05,1.4093642676016316e-05,1.8148843082599342e-05,2.220404530817177e-05,2.62592475337442e-05,3.0314447940327227e-05,3.436964834691025e-05,3.842484875349328e-05,4.248005279805511e-05,4.653525320463814e-05,5.0590453611221164e-05,5.4645657655783e-05,5.8700858062366024e-05,6.275605846894905e-05,6.681126251351088e-05,7.08664592821151e-05,7.492166332667693e-05,7.897686737123877e-05,8.303206413984299e-05,8.708726818440482e-05,9.114246495300904e-05,9.519766899757087e-05,9.92528730421327e-05,0.00010330806981073692,0.00010736327385529876,0.00011141847062390298,0.00011547367466846481,0.00011952887871302664,0.00012358407548163086,0.00012763927225023508,0.00013169448357075453,0.00013574968033935875,0.00013980487710796297,0.0001438600884284824,0.00014791528519708663,0.00015197048196569085,0.0001560256932862103,0.00016008089005481452]},"parameters/fc_layers.6.weight":{"values":[1,0,0,0,0,0,0,1,0,0,0,0,0,0,0,0,0,0,0,0,0,0,0,2,8180,5,0,0,0,0,0,0,0,0,0,1,0,0,1,0,0,0,0,0,0,0,0,0,0,0,0,0,0,0,0,0,0,0,0,0,0,0,0,1],"bins":[-0.00022046014782972634,-0.00021156269940547645,-0.00020266525098122656,-0.00019376778800506145,-0.00018487033958081156,-0.00017597289115656167,-0.00016707542818039656,-0.00015817797975614667,-0.00014928053133189678,-0.0001403830829076469,-0.000131485634483397,-0.0001225881715072319,-0.000113690723082982,-0.00010479327465873212,-9.589581895852461e-05,-8.699836325831711e-05,-7.810091483406723e-05,-6.920346640981734e-05,-6.0306010709609836e-05,-5.140855864738114e-05,-4.251110658515245e-05,-3.361365452292375e-05,-2.4716202460695058e-05,-1.5818750398466364e-05,-6.921298336237669e-06,1.9761537259910256e-06,1.087360578821972e-05,1.9771057850448415e-05,2.866850991267711e-05,3.7565961974905804e-05,4.64634140371345e-05,5.536086609936319e-05,6.425828905776143e-05,7.315573748201132e-05,8.205319318221882e-05,9.095064888242632e-05,9.984809730667621e-05,0.0001087455457309261,0.0001176430014311336,0.0001265404571313411,0.000135437905555591,0.00014433535397984087,0.00015323280240409076,0.00016213026538025588,0.00017102771380450577,0.00017992516222875565,0.00018882262520492077,0.00019772007362917066,0.00020661752205342054,0.00021551497047767043,0.00022441241890192032,0.00023330988187808543,0.00024220733030233532,0.00025110479327850044,0.0002600022417027503,0.0002688996901270002,0.0002777971385512501,0.0002866945869755,0.0002955920353997499,0.00030448948382399976,0.0003133869613520801,0.00032228440977633,0.0003311818582005799,0.00034007930662482977,0.00034897675504907966],"_type":"histogram"},"_step":10395,"epoch":0,"gradient_norms":0.21921404125738492,"parameters/fc_layers.8.bias":{"_type":"histogram","values":[1,0,0,0,0,0,0,0,0,0,0,0,0,0,0,0,1,0,0,1,0,0,0,0,0,0,0,0,0,1,0,57,0,2,0,0,0,0,0,0,0,0,0,0,0,0,0,0,0,0,0,0,0,0,0,0,0,0,0,0,0,0,0,1],"bins":[-0.029034383594989777,-0.0281051192432642,-0.02717585302889347,-0.026246588677167892,-0.025317322462797165,-0.024388058111071587,-0.02345879189670086,-0.02252952754497528,-0.021600261330604553,-0.020670996978878975,-0.019741730764508247,-0.01881246641278267,-0.01788320019841194,-0.016953935846686363,-0.016024669632315636,-0.015095405280590057,-0.014166139997541904,-0.013236874714493752,-0.012307609431445599,-0.011378344148397446,-0.010449078865349293,-0.00951981358230114,-0.008590548299252987,-0.007661283481866121,-0.006732018198817968,-0.0058027529157698154,-0.0048734876327216625,-0.00394422234967351,-0.0030149572994560003,-0.0020856920164078474,-0.0011564268497750163,-0.0002271616249345243,0.0007021035999059677,0.0016313688829541206,0.0025606341660022736,0.003489899216219783,0.004419164732098579,0.005348429549485445,0.006277694832533598,0.007206960115581751,0.008136225864291191,0.00906549021601677,0.009994755499064922,0.010924020782113075,0.011853286065161228,0.012782551348209381,0.013711816631257534,0.014641081914305687,0.01557034719735384,0.016499612480401993,0.01742887683212757,0.0183581430464983,0.019287407398223877,0.020216673612594604,0.021145937964320183,0.02207520417869091,0.02300446853041649,0.023933734744787216,0.024862999096512794,0.025792265310883522,0.0267215296626091,0.027650795876979828,0.028580060228705406,0.029509326443076134,0.030438590794801712]},"gradients/state_emb.weight":{"bins":[0,0],"_type":"histogram","values":[1600]},"parameters/multihead_attn.out_proj.weight":{"bins":[-7.014900112410034e-41,-6.7955969027432e-41,-6.576293693076367e-41,-6.356990483409533e-41,-6.137687273742699e-41,-5.918384064075865e-41,-5.699080854409031e-41,-5.479777644742197e-41,-5.260474435075363e-41,-5.041171225408529e-41,-4.821868015741696e-41,-4.602564806074862e-41,-4.383261596408028e-41,-4.163958386741194e-41,-3.94465517707436e-41,-3.725351967407526e-41,-3.5060487577406923e-41,-3.2867455480738584e-41,-3.0674423384070246e-41,-2.8481391287401907e-41,-2.628835919073357e-41,-2.409532709406523e-41,-2.190229499739689e-41,-1.9709262900728552e-41,-1.7516230804060213e-41,-1.5323198707391875e-41,-1.3130166610723536e-41,-1.0937134514055197e-41,-8.744102417386859e-42,-6.55107032071852e-42,-4.358038224050181e-42,-2.1650061273818424e-42,4.0637655465419695e-44,2.2336697521337584e-42,4.426701848802097e-42,6.619733945470436e-42,8.812766042138775e-42,1.1005798138807113e-41,1.3198830235475452e-41,1.539186233214379e-41,1.758489442881213e-41,1.9777926525480468e-41,2.1970958622148807e-41,2.4163990718817146e-41,2.6357022815485484e-41,2.8550054912153823e-41,3.074308700882216e-41,3.29361191054905e-41,3.512915120215884e-41,3.732218329882718e-41,3.9515215395495517e-41,4.1708247492163855e-41,4.3901279588832194e-41,4.609431168550053e-41,4.828734378216887e-41,5.048037587883721e-41,5.267340797550555e-41,5.486644007217389e-41,5.705947216884223e-41,5.925250426551057e-41,6.14455363621789e-41,6.363856845884724e-41,6.583160055551558e-41,6.802463265218392e-41,7.021766474885226e-41],"_type":"histogram","values":[3,2,7,5,12,12,7,14,8,4,7,14,11,8,6,13,14,16,15,20,28,21,24,22,31,25,28,33,31,22,26,21,17,26,25,23,26,20,25,33,25,27,29,16,12,16,21,13,18,15,14,19,6,8,12,11,7,8,9,6,10,4,6,7]},"gradients/fc_layers.6.weight":{"_type":"histogram","values":[1,0,0,0,0,0,0,0,0,0,0,0,0,0,0,0,0,0,0,0,0,0,0,0,0,0,0,0,0,0,0,0,0,0,0,0,0,0,0,0,0,0,0,0,0,0,0,0,0,1,8189,0,0,0,0,0,0,0,0,0,0,0,0,1],"bins":[-1.9447637182151136e-15,-1.9061968258189677e-15,-1.8676301451810585e-15,-1.8290632527849125e-15,-1.7904965721470033e-15,-1.7519296797508573e-15,-1.7133628932338297e-15,-1.6747961067168022e-15,-1.6362293201997746e-15,-1.597662533682747e-15,-1.5590957471657194e-15,-1.5205289606486918e-15,-1.4819620682525458e-15,-1.4433952817355183e-15,-1.4048284952184907e-15,-1.366261708701463e-15,-1.3276949221844355e-15,-1.289128135667408e-15,-1.2505613491503803e-15,-1.2119945626333528e-15,-1.1734277761163252e-15,-1.1348608837201792e-15,-1.0962940972031516e-15,-1.057727310686124e-15,-1.0191605241690964e-15,-9.805937376520689e-16,-9.420269511350413e-16,-9.034601646180137e-16,-8.648933251614269e-16,-8.263265386443993e-16,-7.877596991878125e-16,-7.49192912670785e-16,-7.106261261537574e-16,-6.720593396367298e-16,-6.334925531197022e-16,-5.949257136631154e-16,-5.563589271460878e-16,-5.177921406290603e-16,-4.792253011724735e-16,-4.406585146554459e-16,-4.020917281384183e-16,-3.635249416213907e-16,-3.2495812863458354e-16,-2.8639131564777635e-16,-2.4782452913074877e-16,-2.0925772937883139e-16,-1.70690929626914e-16,-1.3212412987499662e-16,-9.355733012307924e-17,-5.499053037116185e-17,-1.6423730619244468e-17,2.2143069132672915e-17,6.07098688845903e-17,9.927666863650768e-17,1.3784346838842507e-16,1.7641026814034245e-16,2.1497706789225983e-16,2.535438544092874e-16,2.921106673960946e-16,3.306774803829018e-16,3.6924426689992937e-16,4.0781105341695695e-16,4.463778928735437e-16,4.849446793905713e-16,5.235114659075989e-16]},"parameters/numerical_layer.0.bias":{"values":[1,0,0,0,0,0,0,0,0,0,2,0,0,0,1,2,0,1,0,2,0,0,2,0,1,0,2,1,0,0,1,0,1,0,1,1,1,0,1,0,0,3,0,1,1,0,0,0,0,0,0,0,0,1,0,1,2,1,0,0,0,0,0,1],"bins":[-6.87126701981674e-41,-6.659951211396558e-41,-6.448635402976376e-41,-6.237319594556193e-41,-6.026003786136011e-41,-5.814687977715828e-41,-5.603372169295646e-41,-5.392056360875464e-41,-5.180740552455281e-41,-4.969424744035099e-41,-4.758108935614916e-41,-4.546793127194734e-41,-4.3354773187745515e-41,-4.124161510354369e-41,-3.9128457019341867e-41,-3.7015298935140043e-41,-3.490214085093822e-41,-3.2788982766736395e-41,-3.067582468253457e-41,-2.8562666598332746e-41,-2.644950851413092e-41,-2.43363504299291e-41,-2.2223192345727274e-41,-2.011003426152545e-41,-1.7996876177323626e-41,-1.5883718093121801e-41,-1.3770560008919977e-41,-1.1657401924718153e-41,-9.544243840516329e-42,-7.431085756314505e-42,-5.317927672112681e-42,-3.2047695879108566e-42,-1.0467699528506384e-42,1.0663881313511858e-42,3.17954621555301e-42,5.292704299754834e-42,7.405862383956658e-42,9.519020468158482e-42,1.1632178552360307e-41,1.374533663656213e-41,1.5858494720763955e-41,1.797165280496578e-41,2.0084810889167603e-41,2.2197968973369427e-41,2.431112705757125e-41,2.6424285141773076e-41,2.85374432259749e-41,3.0650601310176724e-41,3.276375939437855e-41,3.487691747858037e-41,3.6990075562782196e-41,3.910323364698402e-41,4.1216391731185845e-41,4.332954981538767e-41,4.5442707899589493e-41,4.755586598379132e-41,4.966902406799314e-41,5.178218215219497e-41,5.389534023639679e-41,5.600849832059861e-41,5.812165640480044e-41,6.023481448900226e-41,6.234797257320409e-41,6.446113065740591e-41,6.657428874160773e-41],"_type":"histogram"},"val_loss":1.4426269336794515,"parameters/numerical_layer.2.bias":{"bins":[-6.209293625269697e-41,3.5378732832214155e-07,7.075746566442831e-07,1.061362013388134e-06,1.4151493132885662e-06,1.7689366131889983e-06,2.122724026776268e-06,2.4765113266767003e-06,2.8302986265771324e-06,3.1840859264775645e-06,3.5378732263779966e-06,3.891660526278429e-06,4.245448053552536e-06,4.599235126079293e-06,4.9530226533534005e-06,5.306809725880157e-06,5.660597253154265e-06,6.014384780428372e-06,6.368171852955129e-06,6.7219593802292366e-06,7.075746452755993e-06,7.429533980030101e-06,7.783321052556857e-06,8.137108125083614e-06,8.490896107105073e-06,8.84468317963183e-06,9.198470252158586e-06,9.552258234180044e-06,9.906045306706801e-06,1.0259832379233558e-05,1.0613619451760314e-05,1.0967407433781773e-05,1.132119450630853e-05,1.1674981578835286e-05,1.2028769560856745e-05,1.2382556633383501e-05,1.2736343705910258e-05,1.3090130778437015e-05,1.3443918760458473e-05,1.379770583298523e-05,1.4151492905511986e-05,1.4505280887533445e-05,1.4859067960060202e-05,1.5212855032586958e-05,1.5566642105113715e-05,1.5920430087135173e-05,1.6274216250167228e-05,1.6628004232188687e-05,1.6981792214210145e-05,1.73355783772422e-05,1.768936635926366e-05,1.8043154341285117e-05,1.8396940504317172e-05,1.875072848633863e-05,1.910451646836009e-05,1.9458302631392144e-05,1.9812090613413602e-05,2.016587859543506e-05,2.0519664758467115e-05,2.0873452740488574e-05,2.122723890352063e-05,2.1581026885542087e-05,2.1934814867563546e-05,2.22886010305956e-05,2.264238901261706e-05],"_type":"histogram","values":[31,0,0,0,0,0,0,0,0,0,0,0,0,0,0,0,0,0,0,0,0,0,0,0,0,0,0,0,0,0,0,0,0,0,0,0,0,0,0,0,0,0,0,0,0,0,0,0,0,0,0,0,0,0,0,0,0,0,0,0,0,0,0,1]},"parameters/fc_layers.9.bias":{"_type":"histogram","values":[1],"bins":[0.01982920616865158,0.01982920616865158]},"parameters/numerical_layer.0.weight":{"_type":"histogram","values":[3,2,2,2,3,3,1,3,4,2,2,3,6,2,2,3,2,4,2,5,6,1,2,5,2,7,4,5,8,7,5,3,2,9,5,2,3,4,3,2,5,4,1,4,2,3,2,1,3,3,3,1,2,2,0,1,1,2,1,5,3,1,0,1],"bins":[-6.187012979686932e-41,-5.983544442666969e-41,-5.780075905647005e-41,-5.576607368627042e-41,-5.373138831607079e-41,-5.169670294587115e-41,-4.966201757567152e-41,-4.762733220547188e-41,-4.559264683527225e-41,-4.3557961465072614e-41,-4.152327609487298e-41,-3.9488590724673345e-41,-3.745390535447371e-41,-3.5419219984274076e-41,-3.338453461407444e-41,-3.134984924387481e-41,-2.9315163873675173e-41,-2.728047850347554e-41,-2.5245793133275904e-41,-2.321110776307627e-41,-2.1176422392876636e-41,-1.9141737022677e-41,-1.7107051652477367e-41,-1.5072366282277732e-41,-1.3037680912078098e-41,-1.1002995541878464e-41,-8.968310171678829e-42,-6.933624801479195e-42,-4.8989394312795605e-42,-2.864254061079926e-42,-8.295686908802917e-43,1.2051166793193427e-42,3.2580189295552e-42,5.292704299754834e-42,7.327389669954468e-42,9.362075040154103e-42,1.1396760410353737e-41,1.3431445780553372e-41,1.5466131150753006e-41,1.750081652095264e-41,1.9535501891152275e-41,2.157018726135191e-41,2.3604872631551544e-41,2.563955800175118e-41,2.767424337195081e-41,2.9708928742150447e-41,3.174361411235008e-41,3.3778299482549715e-41,3.581298485274935e-41,3.7847670222948984e-41,3.988235559314862e-41,4.1917040963348253e-41,4.3951726333547887e-41,4.598641170374752e-41,4.802109707394716e-41,5.005578244414679e-41,5.209046781434642e-41,5.412515318454606e-41,5.615983855474569e-41,5.819452392494533e-41,6.022920929514496e-41,6.22638946653446e-41,6.429858003554423e-41,6.633326540574387e-41,6.83679507759435e-41]},"gradients/token_emb.weight":{"values":[976704],"bins":[0,0],"_type":"histogram"},"gradients/fc_layers.0.bias":{"_type":"histogram","values":[256],"bins":[0,0]},"parameters/fc_layers.3.weight":{"values":[1,0,0,2,0,0,0,0,0,0,0,1,1,1,0,2,0,0,0,2,1,0,1,2,1,0,2,4,1,0,5,4,22,32676,14,5,2,3,2,4,0,1,0,1,2,1,0,0,1,0,1,1,0,0,0,0,0,0,0,0,0,0,0,1],"bins":[-0.0002828438300639391,-0.0002743640507105738,-0.0002658842713572085,-0.0002574044920038432,-0.0002489247126504779,-0.00024044493329711258,-0.00023196515394374728,-0.00022348537459038198,-0.00021500559523701668,-0.0002065258304355666,-0.0001980460510822013,-0.000189566271728836,-0.0001810864923754707,-0.0001726067130221054,-0.0001641269336687401,-0.0001556471543153748,-0.0001471673749620095,-0.0001386875956086442,-0.00013020781625527889,-0.00012172803690191358,-0.00011324825754854828,-0.0001047684854711406,-9.628870611777529e-05,-8.780892676440999e-05,-7.932914741104469e-05,-7.084936805767938e-05,-6.236958870431408e-05,-5.388981298892759e-05,-4.5410033635562286e-05,-3.6930254282196984e-05,-2.8450476747821085e-05,-1.9970699213445187e-05,-1.1490919860079885e-05,-3.0111414162092842e-06,5.468637027661316e-06,1.3948415471531916e-05,2.2428193915402517e-05,3.090797326876782e-05,3.9387748984154314e-05,4.7867528337519616e-05,5.634730769088492e-05,6.482708704425022e-05,7.330686639761552e-05,8.178664575098082e-05,9.026641782838851e-05,9.874619718175381e-05,0.00010722597653511912,0.00011570575588848442,0.00012418553524184972,0.00013266531459521502,0.00014114509394858032,0.00014962487330194563,0.00015810465265531093,0.00016658443200867623,0.00017506421136204153,0.00018354399071540684,0.0001920237555168569,0.0002005035348702222,0.0002089833142235875,0.00021746309357695282,0.00022594287293031812,0.00023442265228368342,0.00024290243163704872,0.000251382210990414,0.0002598619903437793],"_type":"histogram"},"parameters/token_emb.weight":{"values":[3,1,0,1,2,1,0,0,2,2,1,4,3,8,5,5,3,9,6,5,16,12,12,15,18,13,27,31,35,36,51,80,126,395,975141,166,91,63,54,39,34,31,22,19,11,16,21,7,9,6,2,4,6,1,4,6,3,6,5,2,2,1,0,4],"bins":[-0.0003481346648186445,-0.00033795309718698263,-0.00032777152955532074,-0.00031758996192365885,-0.00030740839429199696,-0.0002972268557641655,-0.00028704528813250363,-0.00027686372050084174,-0.00026668215286917984,-0.00025650058523751795,-0.00024631901760585606,-0.0002361374645261094,-0.0002259558968944475,-0.0002157743292627856,-0.00020559277618303895,-0.00019541120855137706,-0.00018522964091971517,-0.00017504807328805327,-0.00016486650565639138,-0.00015468495257664472,-0.00014450338494498283,-0.00013432181731332093,-0.00012414026423357427,-0.00011395869660191238,-0.00010377712897025049,-9.35955613385886e-05,-8.341400098288432e-05,-7.323244062718004e-05,-6.305087299551815e-05,-5.286930900183506e-05,-4.268774500815198e-05,-3.2506181014468893e-05,-2.2324587916955352e-05,-1.2143023923272267e-05,-1.961459929589182e-06,8.220104064093903e-06,1.8401668057776988e-05,2.8583232051460072e-05,3.876479604514316e-05,4.894636003882624e-05,5.912792403250933e-05,6.930949166417122e-05,7.94910520198755e-05,8.967261237557977e-05,9.985418000724167e-05,0.00011003574763890356,0.00012021730799460784,0.00013039886835031211,0.000140580435981974,0.0001507620036136359,0.0001609435712452978,0.00017112512432504445,0.00018130669195670635,0.00019148825958836824,0.0002016698126681149,0.0002118513802997768,0.00022203294793143868,0.00023221451556310058,0.00024239608319476247,0.00025257765082642436,0.00026275921845808625,0.0002729407569859177,0.0002831223246175796,0.00029330389224924147,0.00030348545988090336],"_type":"histogram"},"parameters/fc_layers.2.bias":{"_type":"histogram","values":[1,0,0,0,0,0,0,0,0,0,0,0,0,0,0,0,0,0,0,0,0,0,0,0,0,0,0,0,0,0,0,0,0,0,0,0,0,0,0,0,0,0,0,0,0,0,0,0,0,0,0,0,0,0,0,0,0,0,0,1,0,0,0,254],"bins":[-2.3117440637604653e-24,-2.275619559112453e-24,-2.2394948572492148e-24,-2.2033703526012027e-24,-2.1672458479531906e-24,-2.131121146089952e-24,-2.09499664144194e-24,-2.058872136793928e-24,-2.0227474349306895e-24,-1.9866229302826774e-24,-1.9504984256346653e-24,-1.914373723771427e-24,-1.878249219123415e-24,-1.8421247144754027e-24,-1.8060000126121643e-24,-1.7698755079641522e-24,-1.73375100331614e-24,-1.6976263014529017e-24,-1.6615017968048896e-24,-1.6253771935492644e-24,-1.5892525902936391e-24,-1.553128085645627e-24,-1.5170034823900018e-24,-1.4808788791343765e-24,-1.4447543744863644e-24,-1.4086297712307392e-24,-1.372505167975114e-24,-1.3363805647194887e-24,-1.3002560600714766e-24,-1.2641314568158513e-24,-1.228006853560226e-24,-1.191882348912214e-24,-1.1557577456565887e-24,-1.1196332410085766e-24,-1.0835086377529514e-24,-1.0473840344973261e-24,-1.011259529849314e-24,-9.751349265936888e-25,-9.390103233380635e-25,-9.028858186900514e-25,-8.667612154344262e-25,-8.30636612178801e-25,-7.9451205822698225e-25,-7.583875042751636e-25,-7.222629010195383e-25,-6.8613834706771965e-25,-6.500137438120944e-25,-6.138891898602757e-25,-5.7776463590845705e-25,-5.416400326528318e-25,-5.055154787010131e-25,-4.6939092474919445e-25,-4.332663214935692e-25,-3.971417675417505e-25,-3.6101718893802856e-25,-3.248926103343066e-25,-2.8876803173058463e-25,-2.5264347777876596e-25,-2.16518899175044e-25,-1.8039432057132203e-25,-1.442697542935517e-25,-1.0814517568982975e-25,-7.20206032490836e-26,-3.5896030808337463e-26,2.2854100648144605e-28]},"gradients/fc_layers.2.bias":{"_type":"histogram","values":[254,0,0,0,1,0,0,0,0,0,0,0,0,0,0,0,0,0,0,0,0,0,0,0,0,0,0,0,0,0,0,0,0,0,0,0,0,0,0,0,0,0,0,0,0,0,0,0,0,0,0,0,0,0,0,0,0,0,0,0,0,0,0,1],"bins":[-2.7863506198670975e-30,5.2630142775987625e-28,1.0553891946667947e-27,1.5844769134254646e-27,2.1135646321841345e-27,2.6426524472393016e-27,3.1717402622944687e-27,3.700828077349636e-27,4.2299156998118085e-27,4.75900370745997e-27,5.288091329922143e-27,5.817178952384315e-27,6.346266960032477e-27,6.875354967680638e-27,7.404442590142811e-27,7.933530212604984e-27,8.462617835067156e-27,8.991705457529329e-27,9.520793079991502e-27,1.0049881472825652e-26,1.0578969095287825e-26,1.1108056717749997e-26,1.163714434021217e-26,1.2166231962674343e-26,1.2695320355508493e-26,1.3224407207598688e-26,1.3753495600432838e-26,1.428258399326699e-26,1.4811670845357184e-26,1.5340759238191334e-26,1.586984609028153e-26,1.639893448311568e-26,1.692802287594983e-26,1.745711126878398e-26,1.7986198120874175e-26,1.8515286513708326e-26,1.904437336579852e-26,1.957346175863267e-26,2.010255015146682e-26,2.0631637003557016e-26,2.1160725396391167e-26,2.1689812248481362e-26,2.2218900641315512e-26,2.2747989034149662e-26,2.3277075886239857e-26,2.3806164279074008e-26,2.4335251131164203e-26,2.4864339523998353e-26,2.5393426376088548e-26,2.59225147689227e-26,2.645160316175685e-26,2.6980691554591e-26,2.750977686593724e-26,2.803886525877139e-26,2.856795365160554e-26,2.909704204443969e-26,2.962613043727384e-26,3.015521574862008e-26,3.068430414145423e-26,3.121339253428838e-26,3.174248092712253e-26,3.227156931995668e-26,3.280065463130292e-26,3.332974302413707e-26,3.385883141697122e-26]},"parameters/multihead_attn.in_proj_bias":{"_type":"histogram","values":[1,0,0,0,0,0,0,0,0,0,0,0,0,0,0,0,0,0,0,0,0,0,1,0,0,0,0,0,92,1,0,0,0,0,0,0,0,0,0,0,0,0,0,0,0,0,0,0,0,0,0,0,0,0,0,0,0,0,0,0,0,0,0,1],"bins":[-7.043055666144937e-05,-6.799546827096492e-05,-6.556037988048047e-05,-6.31252842140384e-05,-6.069019582355395e-05,-5.82551074330695e-05,-5.582001540460624e-05,-5.338492337614298e-05,-5.0949834985658526e-05,-4.8514746595174074e-05,-4.6079654566710815e-05,-4.3644562538247555e-05,-4.12094741477631e-05,-3.877438575727865e-05,-3.633929372881539e-05,-3.390420170035213e-05,-3.146911330986768e-05,-2.9034023100393824e-05,-2.659893289091997e-05,-2.4163842681446113e-05,-2.1728752471972257e-05,-1.92936622624984e-05,-1.6858572053024545e-05,-1.442348184355069e-05,-1.1988391634076834e-05,-9.553301424602978e-06,-7.118211215129122e-06,-4.683121005655266e-06,-2.2480307961814106e-06,1.8705941329244524e-07,2.622149622766301e-06,5.057239832240157e-06,7.492330041714013e-06,9.927420251187868e-06,1.2362510460661724e-05,1.479760067013558e-05,1.7232690879609436e-05,1.966778108908329e-05,2.2102871298557147e-05,2.4537961508031003e-05,2.697305171750486e-05,2.9408141926978715e-05,3.184323213645257e-05,3.427832416491583e-05,3.671341255540028e-05,3.9148500945884734e-05,4.1583592974347994e-05,4.401868500281125e-05,4.6453773393295705e-05,4.888886178378016e-05,5.132395381224342e-05,5.3759045840706676e-05,5.619413423119113e-05,5.862922262167558e-05,6.106431828811765e-05,6.34994066786021e-05,6.593449506908655e-05,6.8369583459571e-05,7.080467185005546e-05,7.323976751649752e-05,7.567485590698197e-05,7.810994429746643e-05,8.05450399639085e-05,8.298012835439295e-05,8.54152167448774e-05]},"gradients/numerical_layer.2.bias":{"values":[32],"bins":[0,0],"_type":"histogram"},"train_loss":1.4775724411010742,"parameters/user_emb.weight":{"bins":[-0.00046133692376315594,-0.0004410776891745627,-0.00042081845458596945,-0.0004005592199973762,-0.00038029998540878296,-0.00036004077992402017,-0.0003397815453354269,-0.0003195223107468337,-0.00029926307615824044,-0.0002790038415696472,-0.00025874460698105395,-0.00023848538694437593,-0.0002182261523557827,-0.00019796691776718944,-0.00017770769773051143,-0.00015744846314191818,-0.00013718922855332494,-0.0001169299939647317,-9.667076665209606e-05,-7.641153933946043e-05,-5.615230475086719e-05,-3.589307380025275e-05,-1.5633842849638313e-05,4.625388100976124e-06,2.4884619051590562e-05,4.5143850002205e-05,6.540308095281944e-05,8.566230826545507e-05,0.00010592154285404831,0.00012618077744264156,0.00014643999747931957,0.00016669923206791282,0.00018695852486416698,0.00020721775945276022,0.00022747699404135346,0.0002477362286299467,0.00026799546321853995,0.00028825466870330274,0.000308513903291896,0.00032877313788048923,0.0003490323724690825,0.0003692916070576757,0.00038955084164626896,0.0004098100762348622,0.000430069281719625,0.00045032851630821824,0.0004705877508968115,0.0004908469854854047,0.000511106220073998,0.0005313654546625912,0.0005516246892511845,0.0005718839238397777,0.000592143158428371,0.0006124023930169642,0.0006326616276055574,0.0006529208621941507,0.0006731800967827439,0.0006934392731636763,0.0007136985077522695,0.0007339577423408628,0.000754216976929456,0.0007744762115180492,0.0007947354461066425,0.0008149946806952357,0.000835253915283829],"_type":"histogram","values":[1,0,0,0,1,3,0,10,14,30,51,103,67,89,152,183,200,263,364,450,734,1481,9.177e+06,3195,1016,630,405,302,234,184,154,104,77,89,62,32,17,7,2,2,1,0,0,1,0,0,0,0,0,0,0,0,0,1,0,0,0,0,0,0,0,0,0,1]},"parameters/fc_layers.6.bias":{"_type":"histogram","values":[62,0,0,0,0,0,0,0,0,0,0,0,1,0,0,0,0,0,0,0,0,0,0,0,0,0,0,0,0,0,0,0,0,0,0,0,0,0,0,0,0,0,0,0,0,0,0,0,0,0,0,0,0,0,0,0,0,0,0,0,0,0,0,1],"bins":[-8.693295967532322e-06,6.382793799275532e-06,2.1458883566083387e-05,3.653497333289124e-05,5.1611063099699095e-05,6.668714922852814e-05,8.1763238995336e-05,9.683932876214385e-05,0.0001119154185289517,0.00012699150829575956,0.0001420675980625674,0.00015714368782937527,0.00017221977759618312,0.00018729586736299098,0.00020237195712979883,0.00021744804689660668,0.00023252413666341454,0.0002476002264302224,0.0002626763307489455,0.0002777524059638381,0.0002928285102825612,0.0003079045854974538,0.0003229806898161769,0.0003380567650310695,0.0003531328693497926,0.0003682089445646852,0.0003832850488834083,0.00039836112409830093,0.000413437228417024,0.00042851330363191664,0.0004435894079506397,0.00045866548316553235,0.000473741558380425,0.0004888176335953176,0.0005038937088102102,0.0005189698422327638,0.0005340459174476564,0.000549121992662549,0.0005641981260851026,0.0005792742012999952,0.0005943502765148878,0.0006094263517297804,0.0006245024269446731,0.0006395785603672266,0.0006546546355821192,0.0006697307107970119,0.0006848068442195654,0.000699882919434458,0.0007149589946493506,0.0007300350698642433,0.0007451111450791359,0.0007601872785016894,0.0007752633537165821,0.0007903394289314747,0.0008054155623540282,0.0008204916375689209,0.0008355677127838135,0.0008506437879987061,0.0008657198632135987,0.0008807959966361523,0.0008958720718510449,0.0009109481470659375,0.0009260242804884911,0.0009411003557033837,0.0009561764309182763]},"parameters/region_emb.weight":{"_type":"histogram","values":[1,0,0,0,0,0,0,0,0,0,0,0,0,0,0,0,0,0,0,0,0,0,0,0,0,0,0,0,0,0,0,0,0,0,0,0,0,0,0,0,0,0,0,0,0,0,0,0,0,0,0,0,0,0,0,0,0,0,0,0,0,0,0,351],"bins":[-3.0012629395059776e-06,-2.954368255814188e-06,-2.9074735721223988e-06,-2.860578661056934e-06,-2.8136839773651445e-06,-2.766789293673355e-06,-2.7198946099815657e-06,-2.672999698916101e-06,-2.6261050152243115e-06,-2.579210331532522e-06,-2.5323156478407327e-06,-2.4854209641489433e-06,-2.4385260530834785e-06,-2.391631369391689e-06,-2.3447366856998997e-06,-2.2978420020081103e-06,-2.2509470909426454e-06,-2.204052407250856e-06,-2.1571577235590667e-06,-2.1102630398672773e-06,-2.063368356175488e-06,-2.016473445110023e-06,-1.9695787614182336e-06,-1.9226840777264442e-06,-1.8757893940346548e-06,-1.8288945966560277e-06,-1.7819999129642383e-06,-1.7351051155856112e-06,-1.6882104318938218e-06,-1.6413156345151947e-06,-1.5944209508234053e-06,-1.5475261534447782e-06,-1.5006314697529888e-06,-1.4537367860611994e-06,-1.4068419886825723e-06,-1.3599473049907829e-06,-1.3130525076121558e-06,-1.2661578239203664e-06,-1.2192630265417392e-06,-1.1723683428499498e-06,-1.1254735454713227e-06,-1.0785788617795333e-06,-1.031684178087744e-06,-9.847893807091168e-07,-9.378946401739086e-07,-8.909999564821192e-07,-8.441052159469109e-07,-7.972104754117026e-07,-7.503157348764944e-07,-7.034209943412861e-07,-6.565262538060779e-07,-6.096315132708696e-07,-5.627367727356614e-07,-5.15842089043872e-07,-4.689473200869543e-07,-4.2205260797345545e-07,-3.751578674382472e-07,-3.2826312690303894e-07,-2.813683863678307e-07,-2.3447366004347714e-07,-1.875789337191236e-07,-1.4068419318391534e-07,-9.37894668595618e-08,-4.68947334297809e-08,2.1494899739249256e-30]},"gradients/bus_emb.weight":{"bins":[0,0],"_type":"histogram","values":[4.752736e+06]},"parameters/fc_layers.0.weight":{"_type":"histogram","values":[1,0,0,0,0,1,0,0,0,0,0,0,0,0,0,0,0,0,0,0,1,0,0,0,0,0,0,0,0,0,2,3,8179,2,0,0,0,1,0,0,1,0,0,0,0,0,0,0,0,0,0,0,0,0,0,0,0,0,0,0,0,0,0,1],"bins":[-2.6858115234063007e-05,-2.6026720661320724e-05,-2.519532608857844e-05,-2.4363931515836157e-05,-2.3532536943093874e-05,-2.270114237035159e-05,-2.1869747797609307e-05,-2.1038353224867024e-05,-2.0206960471114144e-05,-1.937556589837186e-05,-1.8544171325629577e-05,-1.7712776752887294e-05,-1.688138218014501e-05,-1.6049987607402727e-05,-1.5218593034660444e-05,-1.438719846191816e-05,-1.3555803889175877e-05,-1.2724409316433594e-05,-1.189301474369131e-05,-1.1061620170949027e-05,-1.0230225598206744e-05,-9.398831934959162e-06,-8.567437362216879e-06,-7.736042789474595e-06,-6.904648216732312e-06,-6.073253643990029e-06,-5.241859071247745e-06,-4.410464953252813e-06,-3.5790703805105295e-06,-2.747675807768246e-06,-1.9162814623996383e-06,-1.0848870033441926e-06,-2.5349072529934347e-07,5.779037337561022e-07,1.4092981928115478e-06,2.2406925381801557e-06,3.072087110922439e-06,3.903481683664722e-06,4.734875801659655e-06,5.566270374401938e-06,6.3976649471442215e-06,7.229059519886505e-06,8.060454092628788e-06,8.891848665371072e-06,9.723242328618653e-06,1.0554636901360936e-05,1.138603147410322e-05,1.2217426046845503e-05,1.3048820619587786e-05,1.388021519233007e-05,1.4711609765072353e-05,1.5543004337814637e-05,1.637439891055692e-05,1.7205793483299203e-05,1.8037188056041487e-05,1.886858262878377e-05,1.969997538253665e-05,2.0531369955278933e-05,2.1362764528021216e-05,2.21941591007635e-05,2.3025553673505783e-05,2.3856948246248066e-05,2.468834281899035e-05,2.5519737391732633e-05,2.6351131964474916e-05]},"gradients/fc_layers.2.weight":{"values":[1,0,0,0,0,0,0,0,0,0,0,0,0,0,0,0,0,0,0,0,0,0,0,0,0,0,0,0,0,0,0,0,0,0,0,0,0,0,0,0,0,0,0,0,0,0,0,0,0,0,0,0,0,0,0,0,0,0,0,0,0,1,0,254],"bins":[-1.1321989942826317e-29,-1.1145083497321351e-29,-1.0968177804132769e-29,-1.0791271358627802e-29,-1.061436566543922e-29,-1.0437459219934254e-29,-1.0260553526745672e-29,-1.0083647081240706e-29,-9.906741388052124e-30,-9.729834942547157e-30,-9.552929249358575e-30,-9.376022803853609e-30,-9.199117110665027e-30,-9.02221066516006e-30,-8.845304971971479e-30,-8.668398526466512e-30,-8.49149283327793e-30,-8.314586387772964e-30,-8.137679942267997e-30,-7.960774249079415e-30,-7.783867803574449e-30,-7.606962110385867e-30,-7.4300556648809e-30,-7.253149971692319e-30,-7.076243526187352e-30,-6.89933783299877e-30,-6.722431387493804e-30,-6.545525694305222e-30,-6.368619248800255e-30,-6.191713179453481e-30,-6.014807110106707e-30,-5.837901040759933e-30,-5.660994971413159e-30,-5.4840889020663845e-30,-5.30718283271961e-30,-5.130276763372836e-30,-4.953370694026062e-30,-4.776464624679288e-30,-4.5995585553325135e-30,-4.422652109827547e-30,-4.245746040480773e-30,-4.068839971133999e-30,-3.8919339017872245e-30,-3.71502783244045e-30,-3.538121763093676e-30,-3.361215693746902e-30,-3.184309624400128e-30,-3.0074035550533535e-30,-2.8304974857065793e-30,-2.653591416359805e-30,-2.476685347013031e-30,-2.2997790895871606e-30,-2.1228730202403864e-30,-1.9459669508936122e-30,-1.769060881546838e-30,-1.592154812200064e-30,-1.4152487428532897e-30,-1.2383425794669674e-30,-1.0614365101201932e-30,-8.84530440773419e-31,-7.076243244068708e-31,-5.307182550600966e-31,-3.538121622034354e-31,-1.7690605759183068e-31,3.421896581062594e-38],"_type":"histogram"},"gradients/fc_layers.0.weight":{"_type":"histogram","values":[8192],"bins":[0,0]},"iteration":4000,"gradients/multihead_attn.in_proj_bias":{"_type":"histogram","values":[96],"bins":[0,0]},"gradients/multihead_attn.out_proj.weight":{"_type":"histogram","values":[1024],"bins":[0,0]},"parameters/fc_layers.5.bias":{"_type":"histogram","values":[1,0,0,0,0,0,0,0,126,0,0,0,0,0,0,0,0,0,0,0,0,0,0,0,0,0,0,0,0,0,0,0,0,0,0,0,0,0,0,0,0,0,0,0,0,0,0,0,0,0,0,0,0,0,0,0,0,0,0,0,0,0,0,1],"bins":[-1.2129280912986928e-10,-1.0730356880817027e-10,-9.331432848647125e-11,-7.932508816477224e-11,-6.533584784307322e-11,-5.134661099082116e-11,-3.73573741385691e-11,-2.3368133816870085e-11,-9.37889349517107e-12,4.610345959166207e-12,1.8599585413503483e-11,3.258882400047902e-11,4.6578064322178037e-11,6.05673011744301e-11,7.455654149612911e-11,8.854578181782813e-11,1.0253502213952714e-10,1.1652426246122616e-10,1.3051350278292517e-10,1.445027431046242e-10,1.584919834263232e-10,1.7248122374802222e-10,1.8647046406972123e-10,2.0045970439142025e-10,2.1444893083533145e-10,2.2843817115703047e-10,2.424274114787295e-10,2.564166656782163e-10,2.704058921221275e-10,2.8439514632161433e-10,2.9838437276552554e-10,3.1237362696501236e-10,3.2636285340892357e-10,3.403520798528348e-10,3.543413340523216e-10,3.683305604962328e-10,3.8231981469571963e-10,3.9630904113963084e-10,4.1029829533911766e-10,4.2428752178302886e-10,4.382767759825157e-10,4.522660024264269e-10,4.662552566259137e-10,4.802445108254005e-10,4.942337095137361e-10,5.08222963713223e-10,5.222122179127098e-10,5.362014721121966e-10,5.501906708005322e-10,5.64179925000019e-10,5.781691791995058e-10,5.921583778878414e-10,6.061476320873282e-10,6.201368862868151e-10,6.341261404863019e-10,6.481153391746375e-10,6.621045933741243e-10,6.760938475736111e-10,6.90083101773098e-10,7.040723004614335e-10,7.180615546609204e-10,7.320508088604072e-10,7.46040063059894e-10,7.600292617482296e-10,7.740185159477164e-10]},"gradients/fc_layers.3.weight":{"bins":[0,0],"_type":"histogram","values":[32768]},"gradients/fc_layers.3.bias":{"_type":"histogram","values":[127,0,0,0,0,0,0,0,0,0,0,0,0,0,0,0,0,0,0,0,0,0,0,0,0,0,0,0,0,0,0,0,0,0,0,0,0,0,0,0,0,0,0,0,0,0,0,0,0,0,0,0,0,0,0,0,0,0,0,0,0,0,0,1],"bins":[-9.361063383751824e-27,8.280220115945364e-24,1.656980243311389e-23,2.4859383172560608e-23,3.3148963912007324e-23,4.143854780689766e-23,4.972812854634438e-23,5.80177092857911e-23,6.630729318068143e-23,7.459687076468453e-23,8.288645465957487e-23,9.11760385544652e-23,9.94656161384683e-23,1.077551937224714e-22,1.1604478392824897e-22,1.2433436151225207e-22,1.3262393909625517e-22,1.4091352930203274e-22,1.4920310688603584e-22,1.5749268447003894e-22,1.6578227467581651e-22,1.740718522598196e-22,1.823614298438227e-22,1.9065102004960029e-22,1.9894059763360338e-22,2.0723017521760648e-22,2.1551975280160957e-22,2.2380933038561267e-22,2.3209893321316473e-22,2.4038851079716783e-22,2.486780883811709e-22,2.56967665965174e-22,2.652572687927261e-22,2.735468463767292e-22,2.8183642396073227e-22,2.9012600154473537e-22,2.9841560437228743e-22,3.0670518195629053e-22,3.149947595402936e-22,3.232843371242967e-22,3.315739147082998e-22,3.398634922923029e-22,3.4815309511985497e-22,3.5644267270385807e-22,3.6473225028786116e-22,3.7302182787186426e-22,3.8131140545586736e-22,3.8960098303987045e-22,3.978905858674225e-22,4.061801634514256e-22,4.144697410354287e-22,4.227593186194318e-22,4.310488962034349e-22,4.39338473787438e-22,4.476280513714411e-22,4.559176289554442e-22,4.642072065394473e-22,4.724967841234504e-22,4.807864121945514e-22,4.890759897785545e-22,4.973655673625576e-22,5.056551449465607e-22,5.139447225305638e-22,5.222343001145669e-22,5.3052387769857e-22]},"gradients/region_emb.weight":{"values":[352],"bins":[0,0],"_type":"histogram"},"gradients/fc_layers.8.weight":{"values":[1,0,0,0,0,0,0,0,0,0,0,0,0,0,0,0,0,0,0,0,0,0,0,0,0,0,0,0,0,0,2,1,3,54,0,1,0,0,0,0,0,0,0,0,0,0,0,0,0,0,0,0,0,1,0,0,0,0,0,0,0,0,0,1],"bins":[-0.0003307649167254567,-0.00032075561466626823,-0.00031074631260707974,-0.00030073701054789126,-0.0002907277084887028,-0.0002807184064295143,-0.00027070913347415626,-0.0002606998314149678,-0.0002506905293557793,-0.0002406812272965908,-0.00023067192523740232,-0.00022066262317821383,-0.00021065332111902535,-0.00020064401905983686,-0.0001906347315525636,-0.00018062542949337512,-0.00017061612743418664,-0.00016060682537499815,-0.00015059752331580967,-0.0001405882358085364,-0.00013057893374934793,-0.00012056963169015944,-0.00011056032963097095,-0.00010055103484774008,-9.05417327885516e-05,-8.053243072936311e-05,-7.052313594613224e-05,-6.051383388694376e-05,-5.050453546573408e-05,-4.04952370445244e-05,-3.048593680432532e-05,-2.0476636564126238e-05,-1.046733814291656e-05,-4.5803881221218035e-07,9.5512605184922e-06,1.956056075869128e-05,2.956985917990096e-05,3.957915760111064e-05,4.958845966029912e-05,5.95977580815088e-05,6.960705650271848e-05,7.961635856190696e-05,8.962565334513783e-05,9.963495540432632e-05,0.0001096442574635148,0.00011965355224674568,0.00012966284702997655,0.00013967214908916503,0.00014968145114835352,0.000159690753207542,0.0001697000552667305,0.00017970934277400374,0.00018971864483319223,0.00019972794689238071,0.0002097372489515692,0.00021974655101075768,0.00022975585306994617,0.00023976514057721943,0.00024977445718832314,0.00025978373014368117,0.00026979303220286965,0.00027980233426205814,0.0002898116363212466,0.0002998209383804351,0.0003098302404396236],"_type":"histogram"},"gradients/numerical_layer.2.weight":{"values":[32],"bins":[0,0],"_type":"histogram"},"parameters/fc_layers.9.weight":{"values":[1,0,0,0,0,0,0,0,0,0,0,0,0,0,0,0,1,0,0,0,0,0,0,0,0,0,0,0,1,0,58,0,1,0,0,0,1,0,0,0,0,0,0,0,0,0,0,0,0,0,0,0,0,0,0,0,0,0,0,0,0,0,0,1],"bins":[-0.029517821967601776,-0.028550323098897934,-0.02758282609283924,-0.026615329086780548,-0.025647830218076706,-0.024680331349372864,-0.02371283434331417,-0.022745337337255478,-0.021777838468551636,-0.020810339599847794,-0.0198428425937891,-0.018875345587730408,-0.017907846719026566,-0.016940347850322723,-0.01597285084426403,-0.015005352906882763,-0.014037854969501495,-0.013070357032120228,-0.01210285909473896,-0.011135361157357693,-0.010167863219976425,-0.009200365282595158,-0.00823286734521389,-0.0072653694078326225,-0.006297871470451355,-0.005330373533070087,-0.00436287559568882,-0.0033953776583075523,-0.002427879720926285,-0.0014603817835450172,-0.0004928838461637497,0.00047461409121751785,0.0014421120285987854,0.002409609965980053,0.0033771079033613205,0.004344605840742588,0.005312103778123856,0.006279601715505123,0.007247099652886391,0.008214597590267658,0.009182095527648926,0.010149593465030193,0.011117091402411461,0.012084589339792728,0.013052087277173996,0.014019585214555264,0.014987083151936531,0.015954580157995224,0.016922079026699066,0.01788957789540291,0.0188570749014616,0.019824571907520294,0.020792070776224136,0.02175956964492798,0.02272706665098667,0.023694563657045364,0.024662062525749207,0.02562956139445305,0.02659705840051174,0.027564555406570435,0.028532054275274277,0.02949955314397812,0.030467050150036812,0.031434547156095505,0.03240204602479935],"_type":"histogram"},"parameters/fc_layers.8.weight":{"values":[1,0,0,0,0,0,0,0,0,0,0,0,0,0,0,0,0,0,0,0,0,0,0,0,0,0,0,0,0,0,0,1,0,5,55,0,0,0,0,0,0,1,0,0,0,0,0,0,0,0,0,0,0,0,0,0,0,0,0,0,0,0,0,1],"bins":[-0.006204711738973856,-0.006023370660841465,-0.005842030048370361,-0.00566068897023797,-0.005479347892105579,-0.005298007279634476,-0.005116666201502085,-0.004935325123369694,-0.00475398451089859,-0.004572643432766199,-0.004391302354633808,-0.0042099617421627045,-0.0040286206640303135,-0.003847279818728566,-0.003665938973426819,-0.003484597895294428,-0.0033032570499926805,-0.0031219162046909332,-0.0029405751265585423,-0.002759234281256795,-0.0025778934359550476,-0.0023965523578226566,-0.0022152115125209093,-0.002033870667219162,-0.0018525297055020928,-0.0016711887437850237,-0.0014898478984832764,-0.0013085069367662072,-0.001127165975049138,-0.0009458251297473907,-0.0007644841680303216,-0.0005831432645209134,-0.0004018023610115051,-0.00022046144295018166,-3.91205248888582e-05,0.00014222039317246526,0.00032356131123378873,0.000504902214743197,0.0006862431764602661,0.0008675840799696743,0.0010489249834790826,0.0012302659451961517,0.001411606790497899,0.0015929477522149682,0.0017742887139320374,0.0019556295592337847,0.002136970404535532,0.002318311482667923,0.0024996523279696703,0.0026809931732714176,0.0028623342514038086,0.003043675096705556,0.0032250159420073032,0.003406357020139694,0.0035876978654414415,0.003769038710743189,0.00395037978887558,0.0041317204013466835,0.0043130614794790745,0.0044944025576114655,0.004675743170082569,0.00485708424821496,0.005038425326347351,0.005219765938818455,0.005401107016950846],"_type":"histogram"},"gradients/fc_layers.6.bias":{"_type":"histogram","values":[1,0,0,0,0,0,0,0,0,0,0,0,0,0,0,0,0,0,0,0,0,0,0,0,0,0,0,0,0,0,0,0,0,0,0,0,0,0,0,0,0,0,0,0,0,0,0,0,0,0,0,0,0,0,0,0,0,0,0,0,0,0,0,63],"bins":[-9.881582627713215e-06,-9.727121323521715e-06,-9.572660019330215e-06,-9.418198715138715e-06,-9.263738320441917e-06,-9.109277016250417e-06,-8.954815712058917e-06,-8.800354407867417e-06,-8.645893103675917e-06,-8.491431799484417e-06,-8.336970495292917e-06,-8.182509191101417e-06,-8.028047886909917e-06,-7.873587492213119e-06,-7.719126188021619e-06,-7.564664883830119e-06,-7.410203579638619e-06,-7.255742275447119e-06,-7.101280971255619e-06,-6.94682012181147e-06,-6.79235881761997e-06,-6.63789751342847e-06,-6.483436663984321e-06,-6.328975359792821e-06,-6.174514055601321e-06,-6.020052751409821e-06,-5.865591447218321e-06,-5.711130597774172e-06,-5.556669293582672e-06,-5.402207989391172e-06,-5.247747139947023e-06,-5.093285835755523e-06,-4.938824986311374e-06,-4.784363682119874e-06,-4.629902377928374e-06,-4.475441528484225e-06,-4.320980224292725e-06,-4.166518920101225e-06,-4.0120576159097254e-06,-3.857596766465576e-06,-3.7031354622740764e-06,-3.5486741580825765e-06,-3.394213081264752e-06,-3.239751777073252e-06,-3.0852907002554275e-06,-2.9308293960639276e-06,-2.776368319246103e-06,-2.621907015054603e-06,-2.4674459382367786e-06,-2.3129846340452787e-06,-2.158523557227454e-06,-2.004062253035954e-06,-1.849601062531292e-06,-1.6951398720266297e-06,-1.5406786815219675e-06,-1.3862174910173053e-06,-1.231756300512643e-06,-1.0772951100079808e-06,-9.228339763467375e-07,-7.683727858420752e-07,-6.13911595337413e-07,-4.594504048327508e-07,-3.0498921432808856e-07,-1.5052802382342634e-07,3.933172898484827e-09]},"gradients/multihead_attn.in_proj_weight":{"bins":[0,0],"_type":"histogram","values":[3072]},"gradients/fc_layers.5.bias":{"_type":"histogram","values":[1,0,0,0,0,0,0,0,0,0,0,0,0,0,0,0,0,0,0,0,0,0,0,0,0,0,0,0,0,0,0,0,0,0,0,0,0,0,0,0,0,0,0,0,0,0,0,0,0,0,0,0,0,0,0,125,1,0,0,0,0,0,0,1],"bins":[-5.4565116314186923e-11,-5.359046886810326e-11,-5.261582142201959e-11,-5.164117744538288e-11,-5.0666529999299215e-11,-4.969188255321555e-11,-4.8717238576578836e-11,-4.774259113049517e-11,-4.6767943684411506e-11,-4.579329623832784e-11,-4.4818648792244176e-11,-4.384400481560746e-11,-4.28693573695238e-11,-4.189470992344013e-11,-4.092006594680342e-11,-3.9945418500719754e-11,-3.897077105463609e-11,-3.7996123608552423e-11,-3.702147616246876e-11,-3.6046832185832045e-11,-3.507218473974838e-11,-3.4097537293664715e-11,-3.3122893317028e-11,-3.2148245870944336e-11,-3.117359842486067e-11,-3.0198950978777006e-11,-2.922430353269334e-11,-2.8249659556056628e-11,-2.7275012109972963e-11,-2.6300364663889297e-11,-2.5325718952529108e-11,-2.435107324116892e-11,-2.3376422325638302e-11,-2.2401774879554637e-11,-2.1427129168194448e-11,-2.045248345683426e-11,-1.9477836010750593e-11,-1.8503188564666928e-11,-1.752854285330674e-11,-1.655389714194655e-11,-1.5579249695862885e-11,-1.460460224977922e-11,-1.362995653841903e-11,-1.2655309959697103e-11,-1.1680663380975176e-11,-1.0706016802253249e-11,-9.731370223531322e-12,-8.756723644809394e-12,-7.782077066087467e-12,-6.80743048736554e-12,-5.832783908643613e-12,-4.858137329921686e-12,-3.8834907511997585e-12,-2.9088441724778313e-12,-1.934197593755904e-12,-9.59551015033977e-13,1.5095563687950175e-14,9.897421424098773e-13,1.9643887211318045e-12,2.9390352998537317e-12,3.913681878575659e-12,4.888328457297586e-12,5.862975036019513e-12,6.83762161474144e-12,7.812268193463368e-12]},"parameters/fc_layers.0.bias":{"values":[1,1,2,4,2,3,4,1,3,4,3,4,3,4,3,5,1,4,7,5,5,7,6,7,11,5,5,4,10,5,3,5,2,9,7,5,3,8,6,6,9,3,5,5,7,7,1,2,5,5,0,4,4,1,1,1,1,2,4,0,1,1,1,3],"bins":[-6.524305520049916e-41,-6.314250880247626e-41,-6.104196240445336e-41,-5.894141600643046e-41,-5.684086960840755e-41,-5.474032321038465e-41,-5.263977681236175e-41,-5.053923041433885e-41,-4.843868401631595e-41,-4.633813761829305e-41,-4.423759122027015e-41,-4.213704482224725e-41,-4.003649842422435e-41,-3.793595202620145e-41,-3.5835405628178547e-41,-3.3734859230155646e-41,-3.1634312832132745e-41,-2.9533766434109845e-41,-2.7433220036086944e-41,-2.5332673638064043e-41,-2.323212724004114e-41,-2.1131580842018241e-41,-1.903103444399534e-41,-1.693048804597244e-41,-1.482994164794954e-41,-1.2729395249926638e-41,-1.0628848851903737e-41,-8.528302453880837e-42,-6.427756055857936e-42,-4.327209657835035e-42,-2.2266632598121343e-42,-1.2611686178923354e-43,1.968824342376368e-42,4.069370740399269e-42,6.16991713842217e-42,8.27046353644507e-42,1.0371009934467971e-41,1.2471556332490872e-41,1.4572102730513773e-41,1.6672649128536674e-41,1.8773195526559574e-41,2.0873741924582475e-41,2.2974288322605376e-41,2.5074834720628277e-41,2.717538111865118e-41,2.927592751667408e-41,3.137647391469698e-41,3.347702031271988e-41,3.557756671074278e-41,3.767811310876568e-41,3.977865950678858e-41,4.1879205904811483e-41,4.3979752302834384e-41,4.608029870085728e-41,4.818084509888019e-41,5.028139149690309e-41,5.238193789492599e-41,5.448248429294889e-41,5.658303069097179e-41,5.868357708899469e-41,6.078412348701759e-41,6.288466988504049e-41,6.498521628306339e-41,6.708576268108629e-41,6.918630907910919e-41],"_type":"histogram"},"gradients/fc_layers.5.weight":{"bins":[-1.690708120380413e-13,-1.5447704422057174e-13,-1.3988327640310216e-13,-1.252895085856326e-13,-1.1069574076816302e-13,-9.610197295069345e-14,-8.150820513322388e-14,-6.69144373157543e-14,-5.232066949828473e-14,-3.772690168081516e-14,-2.313313386334559e-14,-8.539366045876018e-15,6.054401771593554e-15,2.0648169589063126e-14,3.52419374065327e-14,4.983570522400227e-14,6.442947304147184e-14,7.902324085894141e-14,9.361700867641098e-14,1.0821077649388056e-13,1.2280454431135013e-13,1.373983121288197e-13,1.5199207994628927e-13,1.6658584776375884e-13,1.8117961558122841e-13,1.9577338339869799e-13,2.1036715121616756e-13,2.2496091903363713e-13,2.395546868511067e-13,2.5414845466857627e-13,2.6874222248604585e-13,2.833359903035154e-13,2.9792970391087636e-13,3.1252347172834594e-13,3.271172395458155e-13,3.417110073632851e-13,3.5630477518075465e-13,3.708985429982242e-13,3.854923108156938e-13,4.0008607863316337e-13,4.1467984645063294e-13,4.292736142681025e-13,4.438673820855721e-13,4.58461177008096e-13,4.730549177205112e-13,4.876486584329265e-13,5.022424533554504e-13,5.168362482779743e-13,5.314299889903895e-13,5.460237297028048e-13,5.606175246253287e-13,5.752113195478525e-13,5.898050602602678e-13,6.043988009726831e-13,6.189925958952069e-13,6.335863908177308e-13,6.481801315301461e-13,6.627738722425613e-13,6.773676671650852e-13,6.919614620876091e-13,7.065552028000244e-13,7.211489435124396e-13,7.357427384349635e-13,7.503365333574874e-13,7.649302740699027e-13],"_type":"histogram","values":[1,0,0,0,0,0,0,0,0,0,0,126,0,0,0,0,0,0,0,0,0,0,0,0,0,0,0,0,0,0,0,0,0,0,0,0,0,0,0,0,0,0,0,0,0,0,0,0,0,0,0,0,0,0,0,0,0,0,0,0,0,0,0,1]},"parameters/multihead_attn.in_proj_weight":{"values":[1,0,0,0,0,0,0,0,0,0,0,0,0,0,0,0,0,0,0,0,0,0,0,0,0,0,0,0,0,0,0,0,0,0,0,0,0,0,0,0,0,0,0,0,0,0,0,0,0,0,0,0,0,0,0,0,0,0,0,0,0,0,0,3071],"bins":[-1.400975447083176e-20,-1.379085210771211e-20,-1.3571949744592463e-20,-1.3353047381472814e-20,-1.3134145018353166e-20,-1.2915242655233518e-20,-1.269634029211387e-20,-1.2477437928994221e-20,-1.2258535565874573e-20,-1.2039632394961358e-20,-1.182073003184171e-20,-1.1601827668722061e-20,-1.1382925305602413e-20,-1.1164022942482764e-20,-1.0945120579363116e-20,-1.0726218216243468e-20,-1.050731585312382e-20,-1.0288413490004171e-20,-1.0069511126884523e-20,-9.850608763764875e-21,-9.631706400645226e-21,-9.412804037525578e-21,-9.19390167440593e-21,-8.974999311286281e-21,-8.756096140373066e-21,-8.537193777253418e-21,-8.31829141413377e-21,-8.099389051014121e-21,-7.880486687894473e-21,-7.661584324774825e-21,-7.442681961655176e-21,-7.223779598535528e-21,-7.00487723541588e-21,-6.785974872296231e-21,-6.567072509176583e-21,-6.348170146056935e-21,-6.129267379040503e-21,-5.910365015920855e-21,-5.691462652801206e-21,-5.472560289681558e-21,-5.25365792656191e-21,-5.0347555634422614e-21,-4.815853200322613e-21,-4.596950837202965e-21,-4.378048070186533e-21,-4.159145707066885e-21,-3.9402433439472364e-21,-3.721340980827588e-21,-3.50243861770794e-21,-3.2835362545882915e-21,-3.0646336895202515e-21,-2.845731326400603e-21,-2.626828963280955e-21,-2.4079266001613066e-21,-2.1890240350932665e-21,-1.9701216719736182e-21,-1.75121930885397e-21,-1.5323168447601257e-21,-1.3134144816404774e-21,-1.0945120175466333e-21,-8.75609654426985e-22,-6.567072408202387e-22,-4.378048272134925e-22,-2.1890241360674624e-22,7.055117378336157e-41],"_type":"histogram"},"parameters/multihead_attn.out_proj.bias":{"_type":"histogram","values":[1,0,0,0,1,0,1,0,0,0,0,0,0,0,0,0,0,1,0,0,0,0,0,2,2,0,2,1,0,1,1,1,0,1,0,1,1,0,1,0,0,0,2,0,0,0,1,0,1,3,2,0,1,0,0,1,1,1,0,0,0,0,0,1],"bins":[-6.569567460447607e-41,-6.391882815171221e-41,-6.214198169894834e-41,-6.036513524618447e-41,-5.85882887934206e-41,-5.681144234065673e-41,-5.503459588789287e-41,-5.3257749435129e-41,-5.148090298236513e-41,-4.970405652960126e-41,-4.792721007683739e-41,-4.615036362407353e-41,-4.4373517171309657e-41,-4.259667071854579e-41,-4.081982426578192e-41,-3.9042977813018053e-41,-3.7266131360254185e-41,-3.5489284907490317e-41,-3.371243845472645e-41,-3.193559200196258e-41,-3.0158745549198713e-41,-2.8381899096434845e-41,-2.6605052643670977e-41,-2.482820619090711e-41,-2.305135973814324e-41,-2.1274513285379373e-41,-1.9497666832615505e-41,-1.7720820379851637e-41,-1.5943973927087769e-41,-1.41671274743239e-41,-1.2390281021560033e-41,-1.0613434568796164e-41,-8.873021876104742e-42,-7.096175423340874e-42,-5.3193289705770056e-42,-3.5424825178131376e-42,-1.7656360650492695e-42,1.1210387714598537e-44,1.7880568404784666e-42,3.5649032932423346e-42,5.3417497460062027e-42,7.118596198770071e-42,8.895442651533939e-42,1.0672289104297807e-41,1.2449135557061675e-41,1.4225982009825543e-41,1.600282846258941e-41,1.777967491535328e-41,1.9556521368117147e-41,2.1333367820881015e-41,2.3110214273644883e-41,2.488706072640875e-41,2.666390717917262e-41,2.8440753631936487e-41,3.0217600084700355e-41,3.1994446537464223e-41,3.377129299022809e-41,3.554813944299196e-41,3.732498589575583e-41,3.9101832348519696e-41,4.0878678801283564e-41,4.265552525404743e-41,4.44323717068113e-41,4.620921815957517e-41,4.798606461233904e-41]},"gradients/fc_layers.9.bias":{"bins":[0.5483001470565796,0.5483001470565796],"_type":"histogram","values":[1]},"parameters/fc_layers.5.weight":{"_type":"histogram","values":[1,0,0,0,0,0,0,0,0,0,0,0,0,0,0,0,0,0,0,0,0,0,0,0,0,0,0,0,0,0,0,0,0,0,0,0,0,0,0,0,0,0,0,0,0,0,0,0,0,0,0,0,0,0,0,0,126,0,0,0,0,0,0,1],"bins":[-1.1733425862858748e-11,-1.1527208007566792e-11,-1.1320991019636573e-11,-1.1114773164344616e-11,-1.0908555309052659e-11,-1.070233832112244e-11,-1.0496120465830483e-11,-1.0289902610538526e-11,-1.0083685622608307e-11,-9.87746776731635e-12,-9.671249912024393e-12,-9.465032924094174e-12,-9.258815068802217e-12,-9.05259721351026e-12,-8.846380225580042e-12,-8.640162370288085e-12,-8.433944514996128e-12,-8.227727527065909e-12,-8.021509671773952e-12,-7.815292683843733e-12,-7.609074828551776e-12,-7.40285697325982e-12,-7.196639551648731e-12,-6.9904221300376435e-12,-6.7842042747456865e-12,-6.577986853134599e-12,-6.371769431523511e-12,-6.165552009912423e-12,-5.959334154620466e-12,-5.753116733009378e-12,-5.54689931139829e-12,-5.340681456106333e-12,-5.134464034495245e-12,-4.928246179203288e-12,-4.7220287575922004e-12,-4.5158113359811125e-12,-4.309593480689156e-12,-4.103376059078068e-12,-3.89715863746698e-12,-3.690940782175023e-12,-3.484723360563935e-12,-3.2785057221124125e-12,-3.0722883005013246e-12,-2.8660706620498022e-12,-2.6598532404387143e-12,-2.453635601987192e-12,-2.2474179635356695e-12,-2.0412005419245816e-12,-1.834982903473059e-12,-1.628765373441754e-12,-1.4225478434104488e-12,-1.2163302049589264e-12,-1.0101126749276212e-12,-8.038951448963161e-13,-5.976775606549023e-13,-3.914600035185428e-13,-1.8524244638218335e-13,2.097511075417613e-14,2.271926678905356e-13,4.334102250268951e-13,6.396277821632546e-13,8.458453121945597e-13,1.0520629506460821e-12,1.2582804806773873e-12,1.4644980107086925e-12]},"parameters/state_emb.weight":{"_type":"histogram","values":[1,0,0,0,0,0,0,0,0,0,0,0,0,0,0,0,0,0,0,0,0,0,0,0,0,0,0,0,0,0,0,0,0,0,0,0,0,0,1,0,0,0,0,0,0,0,0,0,0,0,0,0,0,0,0,0,1595,1,0,0,0,0,0,2],"bins":[-6.952548574190587e-05,-6.828609912190586e-05,-6.704671250190586e-05,-6.580733315786347e-05,-6.456794653786346e-05,-6.332855991786346e-05,-6.208917329786345e-05,-6.0849790315842256e-05,-5.961040733382106e-05,-5.8371020713821054e-05,-5.713163409382105e-05,-5.589225111179985e-05,-5.4652864491799846e-05,-5.341348150977865e-05,-5.2174094889778644e-05,-5.0934711907757446e-05,-4.969532528775744e-05,-4.845593866775744e-05,-4.721655568573624e-05,-4.5977169065736234e-05,-4.4737786083715037e-05,-4.349839946371503e-05,-4.2259016481693834e-05,-4.101962986169383e-05,-3.9780243241693825e-05,-3.854086025967263e-05,-3.730147363967262e-05,-3.6062090657651424e-05,-3.482270403765142e-05,-3.358332105563022e-05,-3.234393443563022e-05,-3.110455145360902e-05,-2.9865161195630208e-05,-2.8625776394619606e-05,-2.7386391593609005e-05,-2.6147006792598404e-05,-2.4907621991587803e-05,-2.36682371905772e-05,-2.24288523895666e-05,-2.1189467588556e-05,-1.9950082787545398e-05,-1.8710696167545393e-05,-1.7471311366534792e-05,-1.623192656552419e-05,-1.499254176451359e-05,-1.3753156963502988e-05,-1.2513772162492387e-05,-1.1274386451987084e-05,-1.0035001650976483e-05,-8.795616849965882e-06,-7.5562315942079294e-06,-6.316846338449977e-06,-5.077461537439376e-06,-3.838076736428775e-06,-2.5986914806708228e-06,-1.3593064522865461e-06,-1.1992142390226945e-07,1.1194636044820072e-06,2.358848632866284e-06,3.5982336612505605e-06,4.837618689634837e-06,6.0770034906454384e-06,7.3163887464033905e-06,8.555774002161343e-06,9.795158803171944e-06]},"gradients/numerical_layer.0.weight":{"bins":[0,0],"_type":"histogram","values":[192]},"_runtime":1429.905609,"parameters/numerical_layer.2.weight":{"_type":"histogram","values":[1,0,0,0,0,0,0,0,0,0,0,0,0,0,0,0,1,0,0,0,0,0,0,0,0,0,0,1,0,1,0,0,0,0,0,0,0,0,0,1,0,2,1,3,1,2,1,1,2,1,0,2,1,0,0,1,0,1,1,1,1,1,2,2],"bins":[4.51778624898321e-41,4.5536594896699256e-41,4.589532730356641e-41,4.625405971043356e-41,4.661279211730072e-41,4.697152452416787e-41,4.733025693103502e-41,4.768898933790217e-41,4.804772174476933e-41,4.840645415163648e-41,4.876518655850363e-41,4.912391896537079e-41,4.948265137223794e-41,4.984138377910509e-41,5.020011618597225e-41,5.05588485928394e-41,5.091758099970655e-41,5.127631340657371e-41,5.163504581344086e-41,5.199377822030801e-41,5.235251062717517e-41,5.271124303404232e-41,5.306997544090947e-41,5.342870784777663e-41,5.378744025464378e-41,5.414617266151093e-41,5.450490506837808e-41,5.486363747524524e-41,5.522236988211239e-41,5.558110228897954e-41,5.59398346958467e-41,5.629856710271385e-41,5.670073976197507e-41,5.705947216884223e-41,5.741820457570938e-41,5.777693698257653e-41,5.813566938944369e-41,5.849440179631084e-41,5.885313420317799e-41,5.921186661004515e-41,5.95705990169123e-41,5.992933142377945e-41,6.02880638306466e-41,6.064679623751376e-41,6.100552864438091e-41,6.136426105124806e-41,6.172299345811522e-41,6.208172586498237e-41,6.244045827184952e-41,6.279919067871668e-41,6.315792308558383e-41,6.351665549245098e-41,6.387538789931814e-41,6.423412030618529e-41,6.459285271305244e-41,6.49515851199196e-41,6.531031752678675e-41,6.56690499336539e-41,6.602778234052106e-41,6.638651474738821e-41,6.674524715425536e-41,6.710397956112252e-41,6.746271196798967e-41,6.782144437485682e-41,6.818017678172397e-41]},"gradients/dotw_emb.weight":{"bins":[0,0],"_type":"histogram","values":[224]},"parameters/fc_layers.3.bias":{"_type":"histogram","values":[1,0,0,0,0,0,0,0,0,0,0,0,0,0,0,0,0,0,0,0,0,0,0,0,0,0,0,0,0,0,0,0,0,0,0,0,0,0,0,0,0,0,0,0,0,0,0,0,0,0,0,0,0,0,0,0,0,0,0,0,0,0,0,127],"bins":[-3.2662648203334123e-20,-3.215228745891171e-20,-3.1641923483315026e-20,-3.113156273889261e-20,-3.0621201994470197e-20,-3.0110838018873514e-20,-2.96004772744511e-20,-2.9090116530028685e-20,-2.857975578560627e-20,-2.806939181000959e-20,-2.755903106558717e-20,-2.7048668705577624e-20,-2.6538306345568075e-20,-2.602794560114566e-20,-2.5517583241136112e-20,-2.5007222496713697e-20,-2.449686013670415e-20,-2.39864977766946e-20,-2.3476137032272185e-20,-2.2965774672262637e-20,-2.2455413927840222e-20,-2.1945051567830674e-20,-2.1434689207821125e-20,-2.092432846339871e-20,-2.0413966103389162e-20,-1.9903603743379613e-20,-1.9393242998957198e-20,-1.888288063894765e-20,-1.83725182789381e-20,-1.7862157534515686e-20,-1.7351795174506138e-20,-1.6841434430083723e-20,-1.6331072070074174e-20,-1.582071132565176e-20,-1.531034896564221e-20,-1.4799986605632662e-20,-1.4289625861210248e-20,-1.37792635012007e-20,-1.3268901948984717e-20,-1.2758540396768736e-20,-1.2248178844552754e-20,-1.1737816484543205e-20,-1.1227454932327224e-20,-1.0717093380111242e-20,-1.020673182789526e-20,-9.696369467885712e-21,-9.18600791566973e-21,-8.675646363453749e-21,-8.165284811237767e-21,-7.654922451228218e-21,-7.144560899012237e-21,-6.634199346796255e-21,-6.12383739068349e-21,-5.613475838467508e-21,-5.103113882354743e-21,-4.592752330138761e-21,-4.082390374025996e-21,-3.5720288218100145e-21,-3.061667067645641e-21,-2.5513053134812677e-21,-2.0409435593168943e-21,-1.530581805152521e-21,-1.0202200509881475e-21,-5.098582463366762e-22,5.034931351628659e-25]},"gradients/user_emb.weight":{"values":[9.187712e+06],"bins":[0,0],"_type":"histogram"},"_timestamp":1.7265649581262631e+09,"gradients/fc_layers.8.bias":{"values":[1,0,0,0,0,0,0,0,0,0,0,1,0,0,0,0,0,0,0,0,0,0,0,0,0,0,0,0,1,0,56,2,1,1,0,0,0,0,0,0,0,0,0,0,0,0,0,0,0,0,0,0,0,0,0,0,0,0,0,0,0,0,0,1],"bins":[-0.016410399228334427,-0.015872659161686897,-0.015334920957684517,-0.014797180891036987,-0.014259441755712032,-0.013721702620387077,-0.013183962553739548,-0.012646223418414593,-0.012108484283089638,-0.011570745147764683,-0.011033006012439728,-0.010495265945792198,-0.009957526810467243,-0.009419787675142288,-0.008882047608494759,-0.008344308473169804,-0.007806569337844849,-0.007268830202519894,-0.006731090601533651,-0.006193351000547409,-0.005655611865222454,-0.005117872729897499,-0.004580133128911257,-0.0040423935279250145,-0.0035046543926000595,-0.002966915024444461,-0.0024291756562888622,-0.0018914362881332636,-0.001353696919977665,-0.0008159575518220663,-0.00027821818366646767,0.000259521184489131,0.0007972586899995804,0.001334998058155179,0.0018727374263107777,0.0024104767944663763,0.002948216162621975,0.0034859555307775736,0.004023694898933172,0.0045614344999194145,0.0050991736352443695,0.0056369127705693245,0.006174652371555567,0.006712391972541809,0.007250131107866764,0.007787870243191719,0.008325610309839249,0.008863349445164204,0.009401088580489159,0.009938827715814114,0.010476566851139069,0.011014306917786598,0.011552046053111553,0.012089785188436508,0.012627525255084038,0.013165264390408993,0.013703003525733948,0.014240742661058903,0.014778481796383858,0.015316221863031387,0.015853960067033768,0.016391700133681297,0.016929440200328827,0.017467178404331207,0.018004918470978737],"_type":"histogram"}}