{"gradients/graph_34fc_layers.4.bias":{"values":[1],"bins":[-0.0032335759606212378,-0.0032335759606212378],"_type":"histogram"},"gradients/graph_35fc_layers.0.weight":{"_type":"histogram","values":[1,0,0,0,0,0,0,0,1,6,0,0,1,1,7,4,6,5,7,12,23,14,24,30,38,26,51,59,93,88,128,145,186,277,317,217,165,108,97,63,79,53,32,41,37,25,23,16,9,9,9,6,7,1,5,1,4,0,0,0,0,1,1,1],"bins":[-0.009799803607165813,-0.009512366726994514,-0.009224929846823215,-0.008937492966651917,-0.008650055155158043,-0.008362618274986744,-0.008075181394815445,-0.007787744514644146,-0.007500307634472847,-0.007212870288640261,-0.006925433408468962,-0.006637996528297663,-0.0063505591824650764,-0.0060631223022937775,-0.0057756854221224785,-0.005488248076289892,-0.005200811196118593,-0.004913374315947294,-0.004625936970114708,-0.004338500089943409,-0.00405106320977211,-0.0037636260967701674,-0.0034761889837682247,-0.0031887521035969257,-0.002901314990594983,-0.0026138778775930405,-0.0023264409974217415,-0.002039003884419799,-0.001751566887833178,-0.0014641298912465572,-0.0011766927782446146,-0.0008892557816579938,-0.000601818785071373,-0.0003143817593809217,-2.6944733690470457e-05,0.0002604922919999808,0.0005479293176904321,0.0008353663142770529,0.0011228034272789955,0.0014102404238656163,0.0016976774204522371,0.0019851145334541798,0.0022725514136254787,0.0025599885266274214,0.002847425639629364,0.003134862519800663,0.0034222996328026056,0.0037097365129739046,0.003997173625975847,0.004284610506147146,0.0045720478519797325,0.0048594847321510315,0.0051469216123223305,0.005434358958154917,0.005721795838326216,0.006009232718497515,0.006296670064330101,0.0065841069445014,0.006871543824672699,0.007158980704843998,0.007446418050676584,0.007733854930847883,0.00802129227668047,0.008308729156851768,0.008596166037023067]},"gradients/graph_35bus_emb.weight":{"_type":"histogram","values":[1,0,0,1,0,1,1,0,1,1,1,6,4,9,11,15,41,73,114,252,522,1219,2994,7004,18494,56696,1.316789e+06,52176,17335,6658,2731,1125,454,231,118,64,37,13,12,9,5,5,1,1,2,1,0,0,0,0,0,1,0,0,0,0,0,0,0,0,0,0,0,1],"bins":[-0.0001717250852379948,-0.0001652365317568183,-0.00015874796372372657,-0.00015225941024255008,-0.00014577084220945835,-0.00013928228872828186,-0.00013279372069519013,-0.00012630516721401364,-0.00011981660645687953,-0.00011332804569974542,-0.00010683948494261131,-0.0001003509241854772,-9.38623707043007e-05,-8.737380994716659e-05,-8.088524919003248e-05,-7.439668843289837e-05,-6.790812767576426e-05,-6.141956691863015e-05,-5.493100616149604e-05,-4.844244904234074e-05,-4.195388828520663e-05,-3.546532752807252e-05,-2.8976768589927815e-05,-2.248820965178311e-05,-1.5999648894649e-05,-9.511089047009591e-06,-3.022529199370183e-06,3.466030648269225e-06,9.954590495908633e-06,1.6443151253042743e-05,2.293171019118745e-05,2.9420269129332155e-05,3.590884443838149e-05,4.23974051955156e-05,4.888596595264971e-05,5.5374523071805015e-05,6.186308746691793e-05,6.835164094809443e-05,7.484020170522854e-05,8.132876246236265e-05,8.781732321949676e-05,9.430588397663087e-05,0.00010079444473376498,0.00010728300549089909,0.00011377155897207558,0.00012026011972920969,0.0001267486804863438,0.00013323724851943552,0.00013972580200061202,0.00014621435548178852,0.00015270292351488024,0.00015919147699605674,0.00016568004502914846,0.00017216859851032495,0.00017865716654341668,0.00018514572002459317,0.0001916342880576849,0.0001981228415388614,0.0002046113950200379,0.0002110999630531296,0.0002175885165343061,0.00022407708456739783,0.00023056563804857433,0.00023705420608166605,0.00024354275956284255]},"_wandb":{"runtime":970},"gradients/graph_34fc_layers.1.weight":{"_type":"histogram","values":[1,0,0,0,0,0,2,0,0,1,0,0,1,0,0,2,1,1,1,1,0,2,1,0,1,0,4,3,0,0,3,2,5,1,5,8,2,4,7,5,10,9,5,4,2,4,2,2,3,2,4,2,2,6,0,0,3,1,0,0,0,0,0,3],"bins":[-0.003254737239331007,-0.003175924764946103,-0.003097112290561199,-0.0030182998161762953,-0.0029394873417913914,-0.0028606748674064875,-0.0027818623930215836,-0.0027030499186366796,-0.0026242374442517757,-0.002545424969866872,-0.002466612495481968,-0.002387800021097064,-0.00230898754671216,-0.002230175072327256,-0.0021513625979423523,-0.0020725501235574484,-0.0019937376491725445,-0.0019149251747876406,-0.0018361127004027367,-0.0017573002260178328,-0.0016784877516329288,-0.001599675277248025,-0.001520862802863121,-0.0014420503284782171,-0.0013632378540933132,-0.0012844253797084093,-0.0012056129053235054,-0.0011268004309386015,-0.0010479879565536976,-0.0009691754821687937,-0.0008903630077838898,-0.0008115505333989859,-0.000732738059014082,-0.000653925584629178,-0.0005751131102442741,-0.0004963006358593702,-0.0004174881614744663,-0.0003386756870895624,-0.0002598632127046585,-0.0001810507383197546,-0.00010223826393485069,-2.3425789549946785e-05,5.538668483495712e-05,0.00013419915921986103,0.00021301163360476494,0.00029182410798966885,0.00037063658237457275,0.00044944905675947666,0.0005282615311443806,0.0006070740055292845,0.0006858864799141884,0.0007646989542990923,0.0008435114286839962,0.0009223239030689001,0.001001136377453804,0.001079948851838708,0.0011587613262236118,0.0012375738006085157,0.0013163862749934196,0.0013951987493783236,0.0014740112237632275,0.0015528236981481314,0.0016316361725330353,0.0017104486469179392,0.001789261121302843]},"gradients/graph_34fc_layers.4.weight":{"_type":"histogram","values":[1,1,0,0,1,1,1,0,2,0,0,0,2,3,4,3,5,1,3,2,4,4,5,3,4,3,1,5,3,3,3,3,1,5,6,2,2,6,3,5,4,2,4,2,5,0,2,1,0,0,0,1,2,1,1,0,1,0,0,0,0,0,0,1],"bins":[-0.02311040461063385,-0.0224444679915905,-0.0217785332351923,-0.02111259661614895,-0.020446661859750748,-0.019780725240707397,-0.019114790484309196,-0.018448853865265846,-0.017782919108867645,-0.017116982489824295,-0.016451047733426094,-0.015785111114382744,-0.015119175426661968,-0.014453239738941193,-0.013787304051220417,-0.013121368363499641,-0.012455432675778866,-0.01178949698805809,-0.011123561300337315,-0.010457625612616539,-0.009791689924895763,-0.009125754237174988,-0.008459818549454212,-0.007793882396072149,-0.007127946708351374,-0.006462011020630598,-0.0057960753329098225,-0.005130139645189047,-0.004464203491806984,-0.003798268036916852,-0.0031323321163654327,-0.002466396428644657,-0.0018004607409238815,-0.001134525053203106,-0.0004685892490670085,0.00019734649686142802,0.0008632822427898645,0.0015292179305106401,0.0021951538510620594,0.002861089538782835,0.0035270252265036106,0.004192960914224386,0.004858896601945162,0.005524832289665937,0.006190768443048,0.006856704130768776,0.0075226398184895515,0.008188575506210327,0.008854511193931103,0.009520446881651878,0.010186382569372654,0.01085231825709343,0.011518253944814205,0.01218418963253498,0.012850125320255756,0.013516061007976532,0.014181997627019882,0.014847933314740658,0.015513869002461433,0.016179803758859634,0.016845740377902985,0.017511675134301186,0.018177611753344536,0.018843546509742737,0.019509483128786087]},"gradients/graph_35fc_layers.0.bias":{"values":[1,0,0,0,0,0,0,0,0,0,1,1,3,1,1,0,2,2,0,1,2,2,2,5,3,6,2,1,6,5,7,13,7,5,9,4,2,7,4,3,5,3,3,0,2,1,0,1,0,1,2,1,0,0,0,0,0,0,0,0,0,0,0,1],"bins":[-6.752088665962219e-09,-6.537447916343808e-09,-6.322807166725397e-09,-6.108166417106986e-09,-5.893525667488575e-09,-5.678884917870164e-09,-5.464244168251753e-09,-5.249603418633342e-09,-5.034962669014931e-09,-4.82032191939652e-09,-4.605681169778109e-09,-4.3910404201596975e-09,-4.1763996705412865e-09,-3.961758920922875e-09,-3.747118171304464e-09,-3.5324774216860533e-09,-3.3178366720676422e-09,-3.103195922449231e-09,-2.88855517283082e-09,-2.673914423212409e-09,-2.459273673593998e-09,-2.244632923975587e-09,-2.029992174357176e-09,-1.8153514247387648e-09,-1.6007106751203537e-09,-1.3860699255019426e-09,-1.1714291758835316e-09,-9.567884262651205e-10,-7.421476766467094e-10,-5.275069270282984e-10,-3.128661774098873e-10,-9.822542779147625e-11,1.1641532182693481e-10,3.310560714453459e-10,5.456968210637569e-10,7.60337570682168e-10,9.74978320300579e-10,1.1896190699189901e-09,1.4042598195374012e-09,1.6189005691558123e-09,1.8335413187742233e-09,2.0481820683926344e-09,2.2628228180110455e-09,2.4774635676294565e-09,2.6921043172478676e-09,2.9067450668662786e-09,3.1213858164846897e-09,3.3360265661031008e-09,3.550667315721512e-09,3.765308065339923e-09,3.979948814958334e-09,4.194589564576745e-09,4.409230314195156e-09,4.623871063813567e-09,4.838511813431978e-09,5.053152563050389e-09,5.2677933126688e-09,5.4824340622872114e-09,5.6970748119056225e-09,5.9117155615240335e-09,6.126356311142445e-09,6.340997060760856e-09,6.555637810379267e-09,6.770278559997678e-09,6.984919309616089e-09],"_type":"histogram"},"_step":674,"gradients/graph_35fc_layers.4.weight":{"_type":"histogram","values":[1,1,0,0,1,1,1,0,2,0,0,0,2,3,4,3,5,1,3,2,4,4,5,3,4,3,1,5,3,3,3,3,1,5,6,2,2,6,3,5,4,2,4,2,5,0,2,1,0,0,0,1,2,1,1,0,1,0,0,0,0,0,0,1],"bins":[-0.02311040461063385,-0.0224444679915905,-0.0217785332351923,-0.02111259661614895,-0.020446661859750748,-0.019780725240707397,-0.019114790484309196,-0.018448853865265846,-0.017782919108867645,-0.017116982489824295,-0.016451047733426094,-0.015785111114382744,-0.015119175426661968,-0.014453239738941193,-0.013787304051220417,-0.013121368363499641,-0.012455432675778866,-0.01178949698805809,-0.011123561300337315,-0.010457625612616539,-0.009791689924895763,-0.009125754237174988,-0.008459818549454212,-0.007793882396072149,-0.007127946708351374,-0.006462011020630598,-0.0057960753329098225,-0.005130139645189047,-0.004464203491806984,-0.003798268036916852,-0.0031323321163654327,-0.002466396428644657,-0.0018004607409238815,-0.001134525053203106,-0.0004685892490670085,0.00019734649686142802,0.0008632822427898645,0.0015292179305106401,0.0021951538510620594,0.002861089538782835,0.0035270252265036106,0.004192960914224386,0.004858896601945162,0.005524832289665937,0.006190768443048,0.006856704130768776,0.0075226398184895515,0.008188575506210327,0.008854511193931103,0.009520446881651878,0.010186382569372654,0.01085231825709343,0.011518253944814205,0.01218418963253498,0.012850125320255756,0.013516061007976532,0.014181997627019882,0.014847933314740658,0.015513869002461433,0.016179803758859634,0.016845740377902985,0.017511675134301186,0.018177611753344536,0.018843546509742737,0.019509483128786087]},"gradients/graph_34user_emb.weight":{"values":[1,0,0,0,0,0,1,1,4,0,4,6,9,7,14,34,50,63,83,151,197,293,429,628,887,1380,2025,3109,4633,7341,11604,18891,32789,64956,2.550986e+06,76223,37390,21338,12755,7921,4998,3303,2190,1487,1005,613,439,308,237,132,85,52,32,22,15,17,8,5,1,4,1,1,1,1],"bins":[-4.4397504098014906e-05,-4.311410884838551e-05,-4.183071359875612e-05,-4.0547318349126726e-05,-3.926392309949733e-05,-3.798052784986794e-05,-3.669713260023855e-05,-3.5413737350609154e-05,-3.413033846300095e-05,-3.284694321337156e-05,-3.156354796374217e-05,-3.0280154533102177e-05,-2.899675746448338e-05,-2.7713362214853987e-05,-2.6429966965224594e-05,-2.51465717155952e-05,-2.3863176465965807e-05,-2.2579781216336414e-05,-2.129638596670702e-05,-2.0012990717077628e-05,-1.8729595467448235e-05,-1.7446198398829438e-05,-1.6162803149200045e-05,-1.4879407899570651e-05,-1.3596012649941258e-05,-1.2312617400311865e-05,-1.1029222150682472e-05,-9.745825991558377e-06,-8.462430741928983e-06,-7.17903549229959e-06,-5.895639787922846e-06,-4.612244083546102e-06,-3.328848833916709e-06,-2.04545335691364e-06,-7.620578799105715e-07,5.213375970924972e-07,1.8047330740955658e-06,3.0881285510986345e-06,4.371524028101703e-06,5.654919732478447e-06,6.9383149821078405e-06,8.221710231737234e-06,9.505105481366627e-06,1.0788501640490722e-05,1.2071896890120115e-05,1.3355292139749508e-05,1.4638688298873603e-05,1.5922083548502997e-05,1.720547879813239e-05,1.8488874047761783e-05,1.9772269297391176e-05,2.105566454702057e-05,2.2339059796649963e-05,2.362245686526876e-05,2.4905852114898153e-05,2.6189247364527546e-05,2.747264261415694e-05,2.8756037863786332e-05,3.0039433113415726e-05,3.132283018203452e-05,3.2606225431663916e-05,3.388962068129331e-05,3.51730159309227e-05,3.6456411180552095e-05,3.773980643018149e-05],"_type":"histogram"},"loss_val":1.366375744342804,"_timestamp":1.7268758457537239e+09,"loss_train":1.0754642486572266,"gradients/graph_35fc_layers.1.weight":{"_type":"histogram","values":[1,0,0,0,0,0,2,0,0,1,0,0,1,0,0,2,1,1,1,1,0,2,1,0,1,0,4,3,0,0,3,2,5,1,5,8,2,4,7,5,10,9,5,4,2,4,2,2,3,2,4,2,2,6,0,0,3,1,0,0,0,0,0,3],"bins":[-0.003254737239331007,-0.003175924764946103,-0.003097112290561199,-0.0030182998161762953,-0.0029394873417913914,-0.0028606748674064875,-0.0027818623930215836,-0.0027030499186366796,-0.0026242374442517757,-0.002545424969866872,-0.002466612495481968,-0.002387800021097064,-0.00230898754671216,-0.002230175072327256,-0.0021513625979423523,-0.0020725501235574484,-0.0019937376491725445,-0.0019149251747876406,-0.0018361127004027367,-0.0017573002260178328,-0.0016784877516329288,-0.001599675277248025,-0.001520862802863121,-0.0014420503284782171,-0.0013632378540933132,-0.0012844253797084093,-0.0012056129053235054,-0.0011268004309386015,-0.0010479879565536976,-0.0009691754821687937,-0.0008903630077838898,-0.0008115505333989859,-0.000732738059014082,-0.000653925584629178,-0.0005751131102442741,-0.0004963006358593702,-0.0004174881614744663,-0.0003386756870895624,-0.0002598632127046585,-0.0001810507383197546,-0.00010223826393485069,-2.3425789549946785e-05,5.538668483495712e-05,0.00013419915921986103,0.00021301163360476494,0.00029182410798966885,0.00037063658237457275,0.00044944905675947666,0.0005282615311443806,0.0006070740055292845,0.0006858864799141884,0.0007646989542990923,0.0008435114286839962,0.0009223239030689001,0.001001136377453804,0.001079948851838708,0.0011587613262236118,0.0012375738006085157,0.0013163862749934196,0.0013951987493783236,0.0014740112237632275,0.0015528236981481314,0.0016316361725330353,0.0017104486469179392,0.001789261121302843]},"epoch":14,"_runtime":969.861041916,"gradients/graph_35user_emb.weight":{"bins":[-4.4397504098014906e-05,-4.311410884838551e-05,-4.183071359875612e-05,-4.0547318349126726e-05,-3.926392309949733e-05,-3.798052784986794e-05,-3.669713260023855e-05,-3.5413737350609154e-05,-3.413033846300095e-05,-3.284694321337156e-05,-3.156354796374217e-05,-3.0280154533102177e-05,-2.899675746448338e-05,-2.7713362214853987e-05,-2.6429966965224594e-05,-2.51465717155952e-05,-2.3863176465965807e-05,-2.2579781216336414e-05,-2.129638596670702e-05,-2.0012990717077628e-05,-1.8729595467448235e-05,-1.7446198398829438e-05,-1.6162803149200045e-05,-1.4879407899570651e-05,-1.3596012649941258e-05,-1.2312617400311865e-05,-1.1029222150682472e-05,-9.745825991558377e-06,-8.462430741928983e-06,-7.17903549229959e-06,-5.895639787922846e-06,-4.612244083546102e-06,-3.328848833916709e-06,-2.04545335691364e-06,-7.620578799105715e-07,5.213375970924972e-07,1.8047330740955658e-06,3.0881285510986345e-06,4.371524028101703e-06,5.654919732478447e-06,6.9383149821078405e-06,8.221710231737234e-06,9.505105481366627e-06,1.0788501640490722e-05,1.2071896890120115e-05,1.3355292139749508e-05,1.4638688298873603e-05,1.5922083548502997e-05,1.720547879813239e-05,1.8488874047761783e-05,1.9772269297391176e-05,2.105566454702057e-05,2.2339059796649963e-05,2.362245686526876e-05,2.4905852114898153e-05,2.6189247364527546e-05,2.747264261415694e-05,2.8756037863786332e-05,3.0039433113415726e-05,3.132283018203452e-05,3.2606225431663916e-05,3.388962068129331e-05,3.51730159309227e-05,3.6456411180552095e-05,3.773980643018149e-05],"_type":"histogram","values":[1,0,0,0,0,0,1,1,4,0,4,6,9,7,14,34,50,63,83,151,197,293,429,628,887,1380,2025,3109,4633,7341,11604,18891,32789,64956,2.550986e+06,76223,37390,21338,12755,7921,4998,3303,2190,1487,1005,613,439,308,237,132,85,52,32,22,15,17,8,5,1,4,1,1,1,1]},"iteration":43,"gradients/graph_35fc_layers.4.bias":{"values":[1],"bins":[-0.0032335759606212378,-0.0032335759606212378],"_type":"histogram"},"gradients/graph_35fc_layers.1.bias":{"values":[2,0,1,0,2,2,0,0,4,0,1,0,3,2,1,1,2,3,3,5,5,3,5,7,5,6,18,4,5,3,4,1,2,3,0,1,3,0,2,3,0,4,1,0,1,3,0,0,0,0,2,0,1,0,0,0,1,0,2,0,0,0,0,1],"bins":[-0.001818016404286027,-0.0017483686096966267,-0.0016787208151072264,-0.0016090729041025043,-0.001539425109513104,-0.0014697773149237037,-0.0014001294039189816,-0.0013304816093295813,-0.001260833814740181,-0.0011911860201507807,-0.0011215382255613804,-0.0010518903145566583,-0.000982242519967258,-0.0009125947253778577,-0.0008429468725807965,-0.0007732990197837353,-0.000703651225194335,-0.0006340034306049347,-0.0005643555778078735,-0.0004947077250108123,-0.000425059930421412,-0.00035541210672818124,-0.0002857642830349505,-0.00021611645934171975,-0.000146468635648489,-7.682081195525825e-05,-7.172988262027502e-06,6.247483543120325e-05,0.000132122659124434,0.00020177048281766474,0.0002714183065108955,0.00034106613020412624,0.000410713953897357,0.00048036177759058774,0.0005500096012838185,0.0006196574540808797,0.00068930524867028,0.0007589530432596803,0.0008286008960567415,0.0008982487488538027,0.000967896543443203,0.0010375443380326033,0.0011071921326220036,0.0011768400436267257,0.001246487838216126,0.0013161356328055263,0.0013857835438102484,0.0014554313383996487,0.001525079132989049,0.0015947269275784492,0.0016643747221678495,0.0017340226331725717,0.001803670427761972,0.0018733182223513722,0.0019429661333560944,0.0020126139279454947,0.002082261722534895,0.0021519095171242952,0.0022215573117136955,0.002291205106303096,0.002360852900892496,0.00243050092831254,0.0025001487229019403,0.0025697965174913406,0.002639444312080741],"_type":"histogram"},"gradients/graph_34fc_layers.1.bias":{"_type":"histogram","values":[2,0,1,0,2,2,0,0,4,0,1,0,3,2,1,1,2,3,3,5,5,3,5,7,5,6,18,4,5,3,4,1,2,3,0,1,3,0,2,3,0,4,1,0,1,3,0,0,0,0,2,0,1,0,0,0,1,0,2,0,0,0,0,1],"bins":[-0.001818016404286027,-0.0017483686096966267,-0.0016787208151072264,-0.0016090729041025043,-0.001539425109513104,-0.0014697773149237037,-0.0014001294039189816,-0.0013304816093295813,-0.001260833814740181,-0.0011911860201507807,-0.0011215382255613804,-0.0010518903145566583,-0.000982242519967258,-0.0009125947253778577,-0.0008429468725807965,-0.0007732990197837353,-0.000703651225194335,-0.0006340034306049347,-0.0005643555778078735,-0.0004947077250108123,-0.000425059930421412,-0.00035541210672818124,-0.0002857642830349505,-0.00021611645934171975,-0.000146468635648489,-7.682081195525825e-05,-7.172988262027502e-06,6.247483543120325e-05,0.000132122659124434,0.00020177048281766474,0.0002714183065108955,0.00034106613020412624,0.000410713953897357,0.00048036177759058774,0.0005500096012838185,0.0006196574540808797,0.00068930524867028,0.0007589530432596803,0.0008286008960567415,0.0008982487488538027,0.000967896543443203,0.0010375443380326033,0.0011071921326220036,0.0011768400436267257,0.001246487838216126,0.0013161356328055263,0.0013857835438102484,0.0014554313383996487,0.001525079132989049,0.0015947269275784492,0.0016643747221678495,0.0017340226331725717,0.001803670427761972,0.0018733182223513722,0.0019429661333560944,0.0020126139279454947,0.002082261722534895,0.0021519095171242952,0.0022215573117136955,0.002291205106303096,0.002360852900892496,0.00243050092831254,0.0025001487229019403,0.0025697965174913406,0.002639444312080741]},"gradients/graph_34bus_emb.weight":{"bins":[-0.0001717250852379948,-0.0001652365317568183,-0.00015874796372372657,-0.00015225941024255008,-0.00014577084220945835,-0.00013928228872828186,-0.00013279372069519013,-0.00012630516721401364,-0.00011981660645687953,-0.00011332804569974542,-0.00010683948494261131,-0.0001003509241854772,-9.38623707043007e-05,-8.737380994716659e-05,-8.088524919003248e-05,-7.439668843289837e-05,-6.790812767576426e-05,-6.141956691863015e-05,-5.493100616149604e-05,-4.844244904234074e-05,-4.195388828520663e-05,-3.546532752807252e-05,-2.8976768589927815e-05,-2.248820965178311e-05,-1.5999648894649e-05,-9.511089047009591e-06,-3.022529199370183e-06,3.466030648269225e-06,9.954590495908633e-06,1.6443151253042743e-05,2.293171019118745e-05,2.9420269129332155e-05,3.590884443838149e-05,4.23974051955156e-05,4.888596595264971e-05,5.5374523071805015e-05,6.186308746691793e-05,6.835164094809443e-05,7.484020170522854e-05,8.132876246236265e-05,8.781732321949676e-05,9.430588397663087e-05,0.00010079444473376498,0.00010728300549089909,0.00011377155897207558,0.00012026011972920969,0.0001267486804863438,0.00013323724851943552,0.00013972580200061202,0.00014621435548178852,0.00015270292351488024,0.00015919147699605674,0.00016568004502914846,0.00017216859851032495,0.00017865716654341668,0.00018514572002459317,0.0001916342880576849,0.0001981228415388614,0.0002046113950200379,0.0002110999630531296,0.0002175885165343061,0.00022407708456739783,0.00023056563804857433,0.00023705420608166605,0.00024354275956284255],"_type":"histogram","values":[1,0,0,1,0,1,1,0,1,1,1,6,4,9,11,15,41,73,114,252,522,1219,2994,7004,18494,56696,1.316789e+06,52176,17335,6658,2731,1125,454,231,118,64,37,13,12,9,5,5,1,1,2,1,0,0,0,0,0,1,0,0,0,0,0,0,0,0,0,0,0,1]},"gradients/graph_34fc_layers.0.weight":{"bins":[-0.009799803607165813,-0.009512366726994514,-0.009224929846823215,-0.008937492966651917,-0.008650055155158043,-0.008362618274986744,-0.008075181394815445,-0.007787744514644146,-0.007500307634472847,-0.007212870288640261,-0.006925433408468962,-0.006637996528297663,-0.0063505591824650764,-0.0060631223022937775,-0.0057756854221224785,-0.005488248076289892,-0.005200811196118593,-0.004913374315947294,-0.004625936970114708,-0.004338500089943409,-0.00405106320977211,-0.0037636260967701674,-0.0034761889837682247,-0.0031887521035969257,-0.002901314990594983,-0.0026138778775930405,-0.0023264409974217415,-0.002039003884419799,-0.001751566887833178,-0.0014641298912465572,-0.0011766927782446146,-0.0008892557816579938,-0.000601818785071373,-0.0003143817593809217,-2.6944733690470457e-05,0.0002604922919999808,0.0005479293176904321,0.0008353663142770529,0.0011228034272789955,0.0014102404238656163,0.0016976774204522371,0.0019851145334541798,0.0022725514136254787,0.0025599885266274214,0.002847425639629364,0.003134862519800663,0.0034222996328026056,0.0037097365129739046,0.003997173625975847,0.004284610506147146,0.0045720478519797325,0.0048594847321510315,0.0051469216123223305,0.005434358958154917,0.005721795838326216,0.006009232718497515,0.006296670064330101,0.0065841069445014,0.006871543824672699,0.007158980704843998,0.007446418050676584,0.007733854930847883,0.00802129227668047,0.008308729156851768,0.008596166037023067],"_type":"histogram","values":[1,0,0,0,0,0,0,0,1,6,0,0,1,1,7,4,6,5,7,12,23,14,24,30,38,26,51,59,93,88,128,145,186,277,317,217,165,108,97,63,79,53,32,41,37,25,23,16,9,9,9,6,7,1,5,1,4,0,0,0,0,1,1,1]},"gradient_norms":0.3069085713093816,"gradients/graph_34fc_layers.0.bias":{"_type":"histogram","values":[1,0,0,0,0,0,0,0,0,0,1,1,3,1,1,0,2,2,0,1,2,2,2,5,3,6,2,1,6,5,7,13,7,5,9,4,2,7,4,3,5,3,3,0,2,1,0,1,0,1,2,1,0,0,0,0,0,0,0,0,0,0,0,1],"bins":[-6.752088665962219e-09,-6.537447916343808e-09,-6.322807166725397e-09,-6.108166417106986e-09,-5.893525667488575e-09,-5.678884917870164e-09,-5.464244168251753e-09,-5.249603418633342e-09,-5.034962669014931e-09,-4.82032191939652e-09,-4.605681169778109e-09,-4.3910404201596975e-09,-4.1763996705412865e-09,-3.961758920922875e-09,-3.747118171304464e-09,-3.5324774216860533e-09,-3.3178366720676422e-09,-3.103195922449231e-09,-2.88855517283082e-09,-2.673914423212409e-09,-2.459273673593998e-09,-2.244632923975587e-09,-2.029992174357176e-09,-1.8153514247387648e-09,-1.6007106751203537e-09,-1.3860699255019426e-09,-1.1714291758835316e-09,-9.567884262651205e-10,-7.421476766467094e-10,-5.275069270282984e-10,-3.128661774098873e-10,-9.822542779147625e-11,1.1641532182693481e-10,3.310560714453459e-10,5.456968210637569e-10,7.60337570682168e-10,9.74978320300579e-10,1.1896190699189901e-09,1.4042598195374012e-09,1.6189005691558123e-09,1.8335413187742233e-09,2.0481820683926344e-09,2.2628228180110455e-09,2.4774635676294565e-09,2.6921043172478676e-09,2.9067450668662786e-09,3.1213858164846897e-09,3.3360265661031008e-09,3.550667315721512e-09,3.765308065339923e-09,3.979948814958334e-09,4.194589564576745e-09,4.409230314195156e-09,4.623871063813567e-09,4.838511813431978e-09,5.053152563050389e-09,5.2677933126688e-09,5.4824340622872114e-09,5.6970748119056225e-09,5.9117155615240335e-09,6.126356311142445e-09,6.340997060760856e-09,6.555637810379267e-09,6.770278559997678e-09,6.984919309616089e-09]}}