{"parameters/graph_35fc_layers.4.weight":{"bins":[-0.20136719942092896,-0.19517508149147034,-0.1889829784631729,-0.1827908605337143,-0.17659874260425568,-0.17040663957595825,-0.16421452164649963,-0.15802240371704102,-0.1518302857875824,-0.14563818275928497,-0.13944606482982635,-0.13325394690036774,-0.1270618438720703,-0.1208697259426117,-0.11467761546373367,-0.10848549753427505,-0.10229338705539703,-0.09610127657651901,-0.0899091586470604,-0.08371704816818237,-0.07752493023872375,-0.07133281975984573,-0.06514070928096771,-0.05894859507679939,-0.05275648087263107,-0.04656436666846275,-0.040372252464294434,-0.03418014198541641,-0.027988027781248093,-0.021795913577079773,-0.015603801235556602,-0.009411687962710857,-0.0032195597887039185,0.0029725534841418266,0.009164666756987572,0.015356780029833317,0.021548893302679062,0.02774100750684738,0.0339331179857254,0.04012523218989372,0.04631734639406204,0.05250946059823036,0.05870157480239868,0.0648936852812767,0.07108579576015472,0.07727791368961334,0.08347002416849136,0.08966214209794998,0.095854252576828,0.10204636305570602,0.10823848098516464,0.11443059146404266,0.12062270939350128,0.1268148124217987,0.13300693035125732,0.13919904828071594,0.14539116621017456,0.15158326923847198,0.1577753871679306,0.16396750509738922,0.17015960812568665,0.17635172605514526,0.18254384398460388,0.1887359470129013,0.19492806494235992],"_type":"histogram","values":[1,0,1,0,1,2,1,3,1,1,3,4,3,1,6,3,0,4,1,0,2,2,2,6,0,0,2,2,1,1,1,1,2,3,2,1,2,3,3,2,6,0,2,6,3,4,4,2,4,4,1,5,0,0,3,3,2,0,1,2,0,0,1,1]},"training_duration":1292.818123102188,"epoch":19,"loss_train":1.28937566280365,"parameters/graph_35fc_layers.0.bias":{"bins":[-0.2203022539615631,-0.21355348825454712,-0.20680470764636993,-0.20005592703819275,-0.19330716133117676,-0.18655839562416077,-0.17980961501598358,-0.1730608344078064,-0.1663120687007904,-0.15956330299377441,-0.15281452238559723,-0.14606574177742004,-0.13931697607040405,-0.13256821036338806,-0.12581942975521088,-0.11907065659761429,-0.1123218834400177,-0.10557311028242111,-0.09882433712482452,-0.09207556396722794,-0.08532679080963135,-0.07857801765203476,-0.07182924449443817,-0.06508047133684158,-0.058331698179244995,-0.05158292502164841,-0.04483415186405182,-0.03808537870645523,-0.03133660554885864,-0.024587832391262054,-0.017839059233665466,-0.011090286076068878,-0.00434151291847229,0.002407260239124298,0.009156033396720886,0.015904806554317474,0.022653579711914062,0.02940235286951065,0.03615112602710724,0.04289989918470383,0.049648672342300415,0.056397445499897,0.06314621865749359,0.06989499181509018,0.07664376497268677,0.08339253813028336,0.09014131128787994,0.09689008444547653,0.10363885760307312,0.11038763076066971,0.1171364039182663,0.12388517707586288,0.13063395023345947,0.13738271594047546,0.14413149654865265,0.15088027715682983,0.15762904286384583,0.16437780857086182,0.171126589179039,0.1778753697872162,0.18462413549423218,0.19137290120124817,0.19812168180942535,0.20487046241760254,0.21161922812461853],"_type":"histogram","values":[4,1,1,1,0,1,3,6,0,2,4,2,0,2,1,2,1,3,2,1,1,3,1,3,4,1,4,1,2,2,1,0,2,1,2,3,2,4,1,4,4,2,0,1,3,1,5,2,2,1,3,2,2,1,4,1,2,4,1,2,2,1,0,3]},"_wandb":{"runtime":1294},"parameters/graph_34fc_layers.4.bias":{"values":[1],"bins":[0.012154840864241123,0.012154840864241123],"_type":"histogram"},"parameters/graph_34fc_layers.1.bias":{"_type":"histogram","values":[1,0,1,0,0,0,0,1,0,0,3,0,0,2,0,0,1,2,2,0,0,2,3,0,4,6,5,8,5,4,5,5,4,2,3,4,4,4,3,1,1,2,2,5,3,3,2,3,4,5,6,2,1,1,1,0,0,0,0,1,0,0,0,1],"bins":[-0.07613112032413483,-0.07414612919092178,-0.07216113805770874,-0.0701761469244957,-0.06819115579128265,-0.06620616465806961,-0.06422116607427597,-0.062236178666353226,-0.060251183807849884,-0.05826619267463684,-0.0562812015414238,-0.054296210408210754,-0.05231121927499771,-0.05032622814178467,-0.048341233283281326,-0.04635624215006828,-0.04437125101685524,-0.0423862598836422,-0.04040126875042915,-0.03841627389192581,-0.03643128275871277,-0.034446291625499725,-0.03246130049228668,-0.03047630749642849,-0.028491316363215446,-0.026506325230002403,-0.02452133223414421,-0.022536341100931168,-0.020551349967718124,-0.018566356971859932,-0.01658136583864689,-0.014596373774111271,-0.012611377984285355,-0.010626385919749737,-0.008641393855214119,-0.006656402722001076,-0.004671410657465458,-0.0026864188257604837,-0.0007014269940555096,0.0012835648376494646,0.0032685566693544388,0.005253548733890057,0.007238540332764387,0.009223531931638718,0.011208523996174335,0.013193516060709953,0.015178507193922997,0.01716350018978119,0.019148491322994232,0.021133482456207275,0.023118475452065468,0.02510346658527851,0.027088459581136703,0.029073450714349747,0.03105844184756279,0.03304343298077583,0.035028427839279175,0.03701341897249222,0.03899841010570526,0.040983401238918304,0.04296839237213135,0.04495338350534439,0.04693837836384773,0.048923369497060776,0.05090836063027382]},"loss_val":1.3457152644793193,"iteration":43,"_step":900,"parameters/graph_34fc_layers.1.weight":{"values":[3,3,2,3,1,3,0,6,2,0,2,3,2,2,2,2,4,5,5,2,6,4,3,4,3,2,3,4,2,3,5,4,4,2,4,5,1,2,0,1,0,0,1,0,1,2,1,2,0,0,1,0,2,0,0,0,0,0,1,0,0,1,0,2],"bins":[0.9596536159515381,0.9636785984039307,0.9677035808563232,0.9717286229133606,0.9757536053657532,0.9797785878181458,0.9838035702705383,0.9878286123275757,0.9918535947799683,0.9958785772323608,0.9999035596847534,1.003928542137146,1.0079535245895386,1.0119785070419312,1.0160036087036133,1.0200285911560059,1.0240535736083984,1.028078556060791,1.0321035385131836,1.0361285209655762,1.0401535034179688,1.0441784858703613,1.048203468322754,1.052228569984436,1.0562535524368286,1.0602785348892212,1.0643035173416138,1.0683284997940063,1.072353482246399,1.0763784646987915,1.080403447151184,1.0844284296035767,1.0884535312652588,1.0924785137176514,1.096503496170044,1.1005284786224365,1.104553461074829,1.1085784435272217,1.1126034259796143,1.1166284084320068,1.1206533908843994,1.124678373336792,1.1287034749984741,1.1327284574508667,1.1367534399032593,1.1407784223556519,1.1448034048080444,1.148828387260437,1.1528533697128296,1.1568783521652222,1.1609033346176147,1.1649284362792969,1.1689534187316895,1.172978401184082,1.1770033836364746,1.1810283660888672,1.1850533485412598,1.1890783309936523,1.193103313446045,1.1971282958984375,1.2011533975601196,1.2051783800125122,1.2092033624649048,1.2132283449172974,1.21725332736969],"_type":"histogram"},"parameters/graph_34user_emb.weight":{"_type":"histogram","values":[4,8,18,18,59,79,153,258,507,839,1435,2363,3564,5546,8252,11942,17372,23997,32807,42793,54775,69498,85794,102342,118986,136172,151070,163071,173398,178777,179979,176385,169130,158157,144808,128809,112135,94342,78770,62286,49075,37935,28509,20992,14596,10184,7029,4595,2999,1896,1156,667,394,194,122,53,35,21,5,3,0,1,0,1],"bins":[-4.735659122467041,-4.579247951507568,-4.422837257385254,-4.266426086425781,-4.110014915466309,-3.953604221343994,-3.7971930503845215,-3.640782117843628,-3.4843711853027344,-3.327960252761841,-3.1715493202209473,-3.0151381492614746,-2.858727216720581,-2.7023162841796875,-2.545905113220215,-2.3894941806793213,-2.2330832481384277,-2.076672315597534,-1.920261263847351,-1.763850212097168,-1.6074392795562744,-1.4510283470153809,-1.2946172952651978,-1.1382062435150146,-0.9817953109741211,-0.8253843188285828,-0.6689733266830444,-0.5125623345375061,-0.3561513423919678,-0.19974035024642944,-0.04332935810089111,0.11308163404464722,0.26949310302734375,0.4259040951728821,0.5823150873184204,0.7387260794639587,0.8951370716094971,1.0515480041503906,1.2079590559005737,1.3643701076507568,1.5207810401916504,1.677191972732544,1.833603024482727,1.9900140762329102,2.1464250087738037,2.3028359413146973,2.45924711227417,2.6156580448150635,2.772068977355957,2.9284799098968506,3.084890842437744,3.241302013397217,3.3977129459381104,3.554123878479004,3.7105350494384766,3.86694598197937,4.023356914520264,4.179768085479736,4.336178779602051,4.492589950561523,4.649001121520996,4.8054118156433105,4.961822986602783,5.118233680725098,5.27464485168457]},"parameters/graph_34fc_layers.4.weight":{"_type":"histogram","values":[1,0,1,0,1,2,1,3,1,1,3,4,3,1,6,3,0,4,1,0,2,2,2,6,0,0,2,2,1,1,1,1,2,3,2,1,2,3,3,2,6,0,2,6,3,4,4,2,4,4,1,5,0,0,3,3,2,0,1,2,0,0,1,1],"bins":[-0.20136719942092896,-0.19517508149147034,-0.1889829784631729,-0.1827908605337143,-0.17659874260425568,-0.17040663957595825,-0.16421452164649963,-0.15802240371704102,-0.1518302857875824,-0.14563818275928497,-0.13944606482982635,-0.13325394690036774,-0.1270618438720703,-0.1208697259426117,-0.11467761546373367,-0.10848549753427505,-0.10229338705539703,-0.09610127657651901,-0.0899091586470604,-0.08371704816818237,-0.07752493023872375,-0.07133281975984573,-0.06514070928096771,-0.05894859507679939,-0.05275648087263107,-0.04656436666846275,-0.040372252464294434,-0.03418014198541641,-0.027988027781248093,-0.021795913577079773,-0.015603801235556602,-0.009411687962710857,-0.0032195597887039185,0.0029725534841418266,0.009164666756987572,0.015356780029833317,0.021548893302679062,0.02774100750684738,0.0339331179857254,0.04012523218989372,0.04631734639406204,0.05250946059823036,0.05870157480239868,0.0648936852812767,0.07108579576015472,0.07727791368961334,0.08347002416849136,0.08966214209794998,0.095854252576828,0.10204636305570602,0.10823848098516464,0.11443059146404266,0.12062270939350128,0.1268148124217987,0.13300693035125732,0.13919904828071594,0.14539116621017456,0.15158326923847198,0.1577753871679306,0.16396750509738922,0.17015960812568665,0.17635172605514526,0.18254384398460388,0.1887359470129013,0.19492806494235992]},"_timestamp":1.726874117976341e+09,"parameters/graph_35user_emb.weight":{"values":[4,8,18,18,59,79,153,258,507,839,1435,2363,3564,5546,8252,11942,17372,23997,32807,42793,54775,69498,85794,102342,118986,136172,151070,163071,173398,178777,179979,176385,169130,158157,144808,128809,112135,94342,78770,62286,49075,37935,28509,20992,14596,10184,7029,4595,2999,1896,1156,667,394,194,122,53,35,21,5,3,0,1,0,1],"bins":[-4.735659122467041,-4.579247951507568,-4.422837257385254,-4.266426086425781,-4.110014915466309,-3.953604221343994,-3.7971930503845215,-3.640782117843628,-3.4843711853027344,-3.327960252761841,-3.1715493202209473,-3.0151381492614746,-2.858727216720581,-2.7023162841796875,-2.545905113220215,-2.3894941806793213,-2.2330832481384277,-2.076672315597534,-1.920261263847351,-1.763850212097168,-1.6074392795562744,-1.4510283470153809,-1.2946172952651978,-1.1382062435150146,-0.9817953109741211,-0.8253843188285828,-0.6689733266830444,-0.5125623345375061,-0.3561513423919678,-0.19974035024642944,-0.04332935810089111,0.11308163404464722,0.26949310302734375,0.4259040951728821,0.5823150873184204,0.7387260794639587,0.8951370716094971,1.0515480041503906,1.2079590559005737,1.3643701076507568,1.5207810401916504,1.677191972732544,1.833603024482727,1.9900140762329102,2.1464250087738037,2.3028359413146973,2.45924711227417,2.6156580448150635,2.772068977355957,2.9284799098968506,3.084890842437744,3.241302013397217,3.3977129459381104,3.554123878479004,3.7105350494384766,3.86694598197937,4.023356914520264,4.179768085479736,4.336178779602051,4.492589950561523,4.649001121520996,4.8054118156433105,4.961822986602783,5.118233680725098,5.27464485168457],"_type":"histogram"},"parameters/graph_34bus_emb.weight":{"_type":"histogram","values":[2,2,10,6,19,38,71,118,209,378,621,1061,1776,2691,4142,6030,8737,12354,17193,22659,29207,37165,45524,54681,64156,73299,81135,87427,92568,95375,95288,93066,88334,81853,73574,64988,55637,46366,37602,30149,22939,17395,12572,8976,6249,4198,2900,1723,1140,714,388,251,113,86,41,13,8,4,5,2,1,0,0,1],"bins":[-4.835009574890137,-4.674084663391113,-4.51315975189209,-4.352234363555908,-4.191309452056885,-4.030384540557861,-3.869459629058838,-3.7085344791412354,-3.547609567642212,-3.3866846561431885,-3.225759506225586,-3.0648345947265625,-2.903909683227539,-2.7429845333099365,-2.582059621810913,-2.4211344718933105,-2.260209560394287,-2.0992846488952637,-1.9383594989776611,-1.7774345874786377,-1.6165095567703247,-1.4555845260620117,-1.2946596145629883,-1.1337345838546753,-0.9728095531463623,-0.8118845224380493,-0.6509595513343811,-0.4900345504283905,-0.3291095495223999,-0.1681845486164093,-0.007259547710418701,0.1536654531955719,0.3145904541015625,0.4755154550075531,0.6364404559135437,0.7973654270172119,0.9582904577255249,1.119215488433838,1.2801403999328613,1.4410654306411743,1.6019904613494873,1.7629154920578003,1.9238405227661133,2.0847654342651367,2.24569034576416,2.4066154956817627,2.567540407180786,2.7284655570983887,2.889390468597412,3.0503153800964355,3.211240530014038,3.3721654415130615,3.533090591430664,3.6940155029296875,3.854940414428711,4.015865325927734,4.176790237426758,4.3377156257629395,4.498640537261963,4.659565448760986,4.82049036026001,4.981415271759033,5.142340660095215,5.303265571594238,5.464190483093262]},"parameters/graph_35bus_emb.weight":{"values":[2,2,10,6,19,38,71,118,209,378,621,1061,1776,2691,4142,6030,8737,12354,17193,22659,29207,37165,45524,54681,64156,73299,81135,87427,92568,95375,95288,93066,88334,81853,73574,64988,55637,46366,37602,30149,22939,17395,12572,8976,6249,4198,2900,1723,1140,714,388,251,113,86,41,13,8,4,5,2,1,0,0,1],"bins":[-4.835009574890137,-4.674084663391113,-4.51315975189209,-4.352234363555908,-4.191309452056885,-4.030384540557861,-3.869459629058838,-3.7085344791412354,-3.547609567642212,-3.3866846561431885,-3.225759506225586,-3.0648345947265625,-2.903909683227539,-2.7429845333099365,-2.582059621810913,-2.4211344718933105,-2.260209560394287,-2.0992846488952637,-1.9383594989776611,-1.7774345874786377,-1.6165095567703247,-1.4555845260620117,-1.2946596145629883,-1.1337345838546753,-0.9728095531463623,-0.8118845224380493,-0.6509595513343811,-0.4900345504283905,-0.3291095495223999,-0.1681845486164093,-0.007259547710418701,0.1536654531955719,0.3145904541015625,0.4755154550075531,0.6364404559135437,0.7973654270172119,0.9582904577255249,1.119215488433838,1.2801403999328613,1.4410654306411743,1.6019904613494873,1.7629154920578003,1.9238405227661133,2.0847654342651367,2.24569034576416,2.4066154956817627,2.567540407180786,2.7284655570983887,2.889390468597412,3.0503153800964355,3.211240530014038,3.3721654415130615,3.533090591430664,3.6940155029296875,3.854940414428711,4.015865325927734,4.176790237426758,4.3377156257629395,4.498640537261963,4.659565448760986,4.82049036026001,4.981415271759033,5.142340660095215,5.303265571594238,5.464190483093262],"_type":"histogram"},"gradient_norms":0.12253602043194149,"_runtime":1294.155488,"parameters/graph_35fc_layers.4.bias":{"bins":[0.012154840864241123,0.012154840864241123],"_type":"histogram","values":[1]},"parameters/graph_34fc_layers.0.weight":{"_type":"histogram","values":[2,0,2,1,1,6,9,8,26,34,41,49,58,65,48,50,65,68,51,50,64,60,63,66,50,57,61,62,64,70,68,76,66,55,55,73,52,70,62,53,46,61,70,50,53,62,65,61,44,43,40,32,21,13,6,6,1,3,1,0,0,0,0,1],"bins":[-0.32303091883659363,-0.31245166063308716,-0.3018724024295807,-0.2912931740283966,-0.28071391582489014,-0.27013465762138367,-0.2595553994178772,-0.24897615611553192,-0.23839689791202545,-0.22781763970851898,-0.2172383964061737,-0.20665913820266724,-0.19607987999916077,-0.1855006366968155,-0.17492137849330902,-0.16434213519096375,-0.15376287698745728,-0.1431836187839508,-0.13260437548160553,-0.12202511727809906,-0.11144586652517319,-0.10086661577224731,-0.09028735756874084,-0.07970810681581497,-0.0691288560628891,-0.058549605309963226,-0.047970350831747055,-0.037391096353530884,-0.02681184560060501,-0.01623259298503399,-0.005653340369462967,0.004925912246108055,0.015505164861679077,0.0260844174772501,0.03666367009282112,0.04724292457103729,0.057822175323963165,0.06840142607688904,0.07898068428039551,0.08955993503332138,0.10013918578624725,0.11071843653917313,0.121297687292099,0.13187694549560547,0.14245620369911194,0.15303544700145721,0.16361470520496368,0.17419394850730896,0.18477320671081543,0.1953524649143219,0.20593170821666718,0.21651096642017365,0.22709020972251892,0.2376694679260254,0.24824872612953186,0.25882798433303833,0.2694072127342224,0.2799864709377289,0.29056572914123535,0.3011449873447418,0.3117242455482483,0.32230350375175476,0.33288273215293884,0.3434619903564453,0.3540412485599518]},"parameters/graph_34fc_layers.0.bias":{"_type":"histogram","values":[4,1,1,1,0,1,3,6,0,2,4,2,0,2,1,2,1,3,2,1,1,3,1,3,4,1,4,1,2,2,1,0,2,1,2,3,2,4,1,4,4,2,0,1,3,1,5,2,2,1,3,2,2,1,4,1,2,4,1,2,2,1,0,3],"bins":[-0.2203022539615631,-0.21355348825454712,-0.20680470764636993,-0.20005592703819275,-0.19330716133117676,-0.18655839562416077,-0.17980961501598358,-0.1730608344078064,-0.1663120687007904,-0.15956330299377441,-0.15281452238559723,-0.14606574177742004,-0.13931697607040405,-0.13256821036338806,-0.12581942975521088,-0.11907065659761429,-0.1123218834400177,-0.10557311028242111,-0.09882433712482452,-0.09207556396722794,-0.08532679080963135,-0.07857801765203476,-0.07182924449443817,-0.06508047133684158,-0.058331698179244995,-0.05158292502164841,-0.04483415186405182,-0.03808537870645523,-0.03133660554885864,-0.024587832391262054,-0.017839059233665466,-0.011090286076068878,-0.00434151291847229,0.002407260239124298,0.009156033396720886,0.015904806554317474,0.022653579711914062,0.02940235286951065,0.03615112602710724,0.04289989918470383,0.049648672342300415,0.056397445499897,0.06314621865749359,0.06989499181509018,0.07664376497268677,0.08339253813028336,0.09014131128787994,0.09689008444547653,0.10363885760307312,0.11038763076066971,0.1171364039182663,0.12388517707586288,0.13063395023345947,0.13738271594047546,0.14413149654865265,0.15088027715682983,0.15762904286384583,0.16437780857086182,0.171126589179039,0.1778753697872162,0.18462413549423218,0.19137290120124817,0.19812168180942535,0.20487046241760254,0.21161922812461853]},"parameters/graph_35fc_layers.1.bias":{"bins":[-0.07613112032413483,-0.07414612919092178,-0.07216113805770874,-0.0701761469244957,-0.06819115579128265,-0.06620616465806961,-0.06422116607427597,-0.062236178666353226,-0.060251183807849884,-0.05826619267463684,-0.0562812015414238,-0.054296210408210754,-0.05231121927499771,-0.05032622814178467,-0.048341233283281326,-0.04635624215006828,-0.04437125101685524,-0.0423862598836422,-0.04040126875042915,-0.03841627389192581,-0.03643128275871277,-0.034446291625499725,-0.03246130049228668,-0.03047630749642849,-0.028491316363215446,-0.026506325230002403,-0.02452133223414421,-0.022536341100931168,-0.020551349967718124,-0.018566356971859932,-0.01658136583864689,-0.014596373774111271,-0.012611377984285355,-0.010626385919749737,-0.008641393855214119,-0.006656402722001076,-0.004671410657465458,-0.0026864188257604837,-0.0007014269940555096,0.0012835648376494646,0.0032685566693544388,0.005253548733890057,0.007238540332764387,0.009223531931638718,0.011208523996174335,0.013193516060709953,0.015178507193922997,0.01716350018978119,0.019148491322994232,0.021133482456207275,0.023118475452065468,0.02510346658527851,0.027088459581136703,0.029073450714349747,0.03105844184756279,0.03304343298077583,0.035028427839279175,0.03701341897249222,0.03899841010570526,0.040983401238918304,0.04296839237213135,0.04495338350534439,0.04693837836384773,0.048923369497060776,0.05090836063027382],"_type":"histogram","values":[1,0,1,0,0,0,0,1,0,0,3,0,0,2,0,0,1,2,2,0,0,2,3,0,4,6,5,8,5,4,5,5,4,2,3,4,4,4,3,1,1,2,2,5,3,3,2,3,4,5,6,2,1,1,1,0,0,0,0,1,0,0,0,1]},"parameters/graph_35fc_layers.1.weight":{"_type":"histogram","values":[3,3,2,3,1,3,0,6,2,0,2,3,2,2,2,2,4,5,5,2,6,4,3,4,3,2,3,4,2,3,5,4,4,2,4,5,1,2,0,1,0,0,1,0,1,2,1,2,0,0,1,0,2,0,0,0,0,0,1,0,0,1,0,2],"bins":[0.9596536159515381,0.9636785984039307,0.9677035808563232,0.9717286229133606,0.9757536053657532,0.9797785878181458,0.9838035702705383,0.9878286123275757,0.9918535947799683,0.9958785772323608,0.9999035596847534,1.003928542137146,1.0079535245895386,1.0119785070419312,1.0160036087036133,1.0200285911560059,1.0240535736083984,1.028078556060791,1.0321035385131836,1.0361285209655762,1.0401535034179688,1.0441784858703613,1.048203468322754,1.052228569984436,1.0562535524368286,1.0602785348892212,1.0643035173416138,1.0683284997940063,1.072353482246399,1.0763784646987915,1.080403447151184,1.0844284296035767,1.0884535312652588,1.0924785137176514,1.096503496170044,1.1005284786224365,1.104553461074829,1.1085784435272217,1.1126034259796143,1.1166284084320068,1.1206533908843994,1.124678373336792,1.1287034749984741,1.1327284574508667,1.1367534399032593,1.1407784223556519,1.1448034048080444,1.148828387260437,1.1528533697128296,1.1568783521652222,1.1609033346176147,1.1649284362792969,1.1689534187316895,1.172978401184082,1.1770033836364746,1.1810283660888672,1.1850533485412598,1.1890783309936523,1.193103313446045,1.1971282958984375,1.2011533975601196,1.2051783800125122,1.2092033624649048,1.2132283449172974,1.21725332736969]},"parameters/graph_35fc_layers.0.weight":{"values":[2,0,2,1,1,6,9,8,26,34,41,49,58,65,48,50,65,68,51,50,64,60,63,66,50,57,61,62,64,70,68,76,66,55,55,73,52,70,62,53,46,61,70,50,53,62,65,61,44,43,40,32,21,13,6,6,1,3,1,0,0,0,0,1],"bins":[-0.32303091883659363,-0.31245166063308716,-0.3018724024295807,-0.2912931740283966,-0.28071391582489014,-0.27013465762138367,-0.2595553994178772,-0.24897615611553192,-0.23839689791202545,-0.22781763970851898,-0.2172383964061737,-0.20665913820266724,-0.19607987999916077,-0.1855006366968155,-0.17492137849330902,-0.16434213519096375,-0.15376287698745728,-0.1431836187839508,-0.13260437548160553,-0.12202511727809906,-0.11144586652517319,-0.10086661577224731,-0.09028735756874084,-0.07970810681581497,-0.0691288560628891,-0.058549605309963226,-0.047970350831747055,-0.037391096353530884,-0.02681184560060501,-0.01623259298503399,-0.005653340369462967,0.004925912246108055,0.015505164861679077,0.0260844174772501,0.03666367009282112,0.04724292457103729,0.057822175323963165,0.06840142607688904,0.07898068428039551,0.08955993503332138,0.10013918578624725,0.11071843653917313,0.121297687292099,0.13187694549560547,0.14245620369911194,0.15303544700145721,0.16361470520496368,0.17419394850730896,0.18477320671081543,0.1953524649143219,0.20593170821666718,0.21651096642017365,0.22709020972251892,0.2376694679260254,0.24824872612953186,0.25882798433303833,0.2694072127342224,0.2799864709377289,0.29056572914123535,0.3011449873447418,0.3117242455482483,0.32230350375175476,0.33288273215293884,0.3434619903564453,0.3540412485599518],"_type":"histogram"}}