{"_step":1126,"parameters/graph_23fc_layers.4.bias":{"bins":[0.015823442488908768,0.015823442488908768],"_type":"histogram","values":[1]},"parameters/graph_23fc_layers.0.bias":{"values":[4,0,1,1,1,5,3,4,2,1,1,3,1,3,1,1,3,2,3,2,3,3,1,2,4,2,2,1,0,4,3,4,1,3,1,1,3,3,4,4,1,1,1,3,1,1,2,1,1,1,1,1,2,0,0,1,2,2,1,2,3,3,3,3],"bins":[-0.17271007597446442,-0.16718079149723053,-0.16165152192115784,-0.15612223744392395,-0.15059295296669006,-0.14506366848945618,-0.13953439891338348,-0.1340051144361496,-0.1284758299589157,-0.12294655293226242,-0.11741727590560913,-0.11188799142837524,-0.10635871440172195,-0.10082942992448807,-0.09530015289783478,-0.08977086842060089,-0.0842415913939476,-0.07871231436729431,-0.07318302989006042,-0.06765375286340714,-0.06212446838617325,-0.05659519135951996,-0.05106591060757637,-0.04553662985563278,-0.040007349103689194,-0.034478068351745605,-0.028948787599802017,-0.023419508710503578,-0.01789022795855999,-0.012360947206616402,-0.006831667385995388,-0.001302387099713087,0.004226893186569214,0.009756173938512802,0.015285453759133816,0.02081473357975483,0.026344014331698418,0.03187329322099686,0.037402573972940445,0.04293185472488403,0.04846113547682762,0.05399041622877121,0.0595196969807148,0.06504897773265839,0.07057825475931168,0.07610753923654556,0.08163681626319885,0.08716610074043274,0.09269537776708603,0.09822465479373932,0.1037539392709732,0.1092832162976265,0.11481250077486038,0.12034177780151367,0.12587106227874756,0.13140034675598145,0.13692961633205414,0.14245890080928802,0.1479881852865219,0.1535174548625946,0.1590467393398285,0.16457602381706238,0.17010530829429626,0.17563457787036896,0.18116386234760284],"_type":"histogram"},"gradient_norms":0.21365760306941575,"loss_train":1.2529851198196411,"gradients/graph_23numerical_layer.0.weight":{"bins":[-0.014844929799437523,-0.014191534370183945,-0.013538138940930367,-0.012884742580354214,-0.012231347151100636,-0.011577951721847057,-0.010924555361270905,-0.010271159932017326,-0.009617764502763748,-0.00896436907351017,-0.008310973644256592,-0.007657577283680439,-0.007004181854426861,-0.006350786425173283,-0.005697390530258417,-0.005043994635343552,-0.0043905992060899734,-0.0037372035440057516,-0.0030838078819215298,-0.002430412219837308,-0.001777016557753086,-0.0011236208956688643,-0.0004702252335846424,0.00018317042849957943,0.0008365660905838013,0.0014899617526680231,0.002143357414752245,0.002796753076836467,0.0034501487389206886,0.004103544168174267,0.004756940063089132,0.005410335958003998,0.006063729524612427,0.006717124953866005,0.0073705208487808704,0.008023916743695736,0.008677312172949314,0.009330707602202892,0.009984103962779045,0.010637499392032623,0.011290894821286201,0.01194429025053978,0.012597685679793358,0.01325108204036951,0.013904477469623089,0.014557872898876667,0.01521126925945282,0.015864664688706398,0.016518060117959976,0.017171455547213554,0.017824850976467133,0.01847824640572071,0.01913164183497429,0.019785039126873016,0.020438434556126595,0.021091829985380173,0.02174522541463375,0.02239862084388733,0.023052016273140907,0.023705411702394485,0.024358808994293213,0.02501220442354679,0.02566559985280037,0.026318995282053947,0.026972390711307526],"_type":"histogram","values":[1,0,0,0,0,0,0,0,0,0,1,0,1,0,2,3,3,0,3,3,2,2,3,3,5,4,2,1,2,4,2,0,0,0,0,0,0,1,0,0,0,0,0,0,0,0,0,0,0,0,0,0,0,0,0,0,0,0,0,1,0,0,0,1]},"_runtime":622.524562,"gradients/graph_23fc_layers.1.bias":{"_type":"histogram","values":[1,0,0,2,0,0,0,0,0,2,2,0,1,2,2,2,5,0,5,4,5,6,9,5,7,17,8,5,6,6,8,4,1,2,0,2,3,2,1,1,0,0,0,1,0,0,0,0,0,0,0,0,0,0,0,0,0,0,0,0,0,0,0,1],"bins":[-0.0014637741260230541,-0.0014069705503061414,-0.0013501669745892286,-0.0012933633988723159,-0.0012365598231554031,-0.0011797562474384904,-0.0011229525553062558,-0.001066148979589343,-0.0010093454038724303,-0.0009525418281555176,-0.0008957382524386048,-0.0008389346767216921,-0.0007821311010047793,-0.0007253275252878666,-0.0006685238913632929,-0.0006117203156463802,-0.0005549167399294674,-0.0004981131642125547,-0.0004413095593918115,-0.00038450598367489874,-0.00032770237885415554,-0.0002708988031372428,-0.00021409522742033005,-0.00015729163715150207,-0.0001004880468826741,-4.368446025182493e-05,1.3119126379024237e-05,6.99227093718946e-05,0.00012672629964072257,0.00018352988990955055,0.0002403334656264633,0.0002971370704472065,0.00035394064616411924,0.000410744221881032,0.0004675478267017752,0.0005243514315225184,0.0005811550072394311,0.0006379585829563439,0.0006947621586732566,0.0007515657343901694,0.000808369368314743,0.0008651729440316558,0.0009219765197485685,0.0009787800954654813,0.001035583671182394,0.0010923872468993068,0.0011491908226162195,0.0012059943983331323,0.001262797974050045,0.0013196016661822796,0.0013764052418991923,0.001433208817616105,0.0014900123933330178,0.0015468159690499306,0.0016036195447668433,0.001660423120483756,0.0017172266962006688,0.0017740302719175816,0.0018308338476344943,0.0018876375397667289,0.0019444411154836416,0.0020012445747852325,0.002058048266917467,0.002114851726219058,0.0021716554183512926]},"loss_val":1.2052397985716123,"parameters/graph_23numerical_layer.0.bias":{"values":[1,0,0,0,0,0,0,0,0,0,0,0,0,0,0,0,0,0,1,0,1,0,1,1,0,0,0,0,0,0,1,0,0,0,0,0,0,0,0,0,1,0,0,0,0,0,1,0,0,0,0,0,0,0,0,1,0,0,0,0,0,0,0,1],"bins":[-0.42418143153190613,-0.4070792496204376,-0.3899770975112915,-0.372874915599823,-0.3557727336883545,-0.3386705815792084,-0.32156839966773987,-0.30446624755859375,-0.28736406564712524,-0.27026188373565674,-0.2531597316265106,-0.23605754971504211,-0.2189553827047348,-0.2018532156944275,-0.18475103378295898,-0.16764886677265167,-0.15054669976234436,-0.13344453275203705,-0.11634235829114914,-0.09924018383026123,-0.08213801681995392,-0.0650358498096466,-0.0479336753487587,-0.030831504613161087,-0.013729333877563477,0.003372836858034134,0.020475007593631744,0.037577178329229355,0.054679349064826965,0.07178151607513428,0.08888369053602219,0.1059858649969101,0.1230880618095398,0.1401902288198471,0.15729239583015442,0.17439457774162292,0.19149674475193024,0.20859891176223755,0.22570109367370605,0.24280326068401337,0.2599054276943207,0.2770076096057892,0.2941097617149353,0.3112119436264038,0.3283141255378723,0.34541627764701843,0.36251845955848694,0.37962061166763306,0.39672279357910156,0.41382497549057007,0.4309271275997162,0.4480293095111847,0.4651314616203308,0.4822336435317993,0.4993358254432678,0.5164380073547363,0.5335401296615601,0.5506423115730286,0.5677444934844971,0.5848466753959656,0.6019488573074341,0.6190510392189026,0.6361531615257263,0.6532553434371948,0.6703575253486633],"_type":"histogram"},"parameters/graph_23fc_layers.1.weight":{"_type":"histogram","values":[1,0,0,0,0,0,0,0,0,0,0,0,0,0,0,0,0,0,0,0,0,0,0,1,0,0,1,3,7,3,8,7,12,4,6,8,7,12,6,6,4,1,3,4,3,1,5,1,0,1,1,4,0,4,0,0,2,1,0,0,0,0,0,1],"bins":[0.8677636384963989,0.8704829812049866,0.8732023239135742,0.8759216666221619,0.8786410093307495,0.8813603520393372,0.8840796947479248,0.8867990374565125,0.8895183801651001,0.8922377228736877,0.8949570655822754,0.897676408290863,0.9003957509994507,0.9031150937080383,0.905834436416626,0.9085537791252136,0.9112731218338013,0.9139924049377441,0.9167117476463318,0.9194310903549194,0.9221504330635071,0.9248697757720947,0.9275891184806824,0.93030846118927,0.9330278038978577,0.9357471466064453,0.938466489315033,0.9411858320236206,0.9439051747322083,0.9466245174407959,0.9493438601493835,0.9520632028579712,0.9547825455665588,0.9575018882751465,0.9602212309837341,0.9629405736923218,0.9656599164009094,0.9683792591094971,0.9710986018180847,0.9738179445266724,0.97653728723526,0.9792566299438477,0.9819759726524353,0.984695315361023,0.9874146580696106,0.9901340007781982,0.9928533434867859,0.9955726861953735,0.9982919692993164,1.0010113716125488,1.0037306547164917,1.0064500570297241,1.009169340133667,1.0118887424468994,1.0146080255508423,1.0173274278640747,1.0200467109680176,1.02276611328125,1.0254853963851929,1.0282047986984253,1.0309240818023682,1.0336434841156006,1.0363627672195435,1.0390821695327759,1.0418014526367188]},"gradients/graph_23fc_layers.4.bias":{"bins":[-0.012296675704419613,-0.012296675704419613],"_type":"histogram","values":[1]},"parameters/graph_23user_emb.weight":{"values":[2,0,2,6,9,39,59,122,213,406,715,1347,2071,3439,5392,8312,12436,18060,25587,35168,47599,61791,78192,95783,115081,134647,151922,168744,180839,188050,190552,187806,180769,168037,153388,135188,116159,97202,79335,62469,47935,36114,26031,18373,12965,8608,5544,3564,2195,1277,712,399,233,152,55,30,16,8,3,4,0,3,0,1],"bins":[-5.046282768249512,-4.880987167358398,-4.715692043304443,-4.55039644241333,-4.385100841522217,-4.219805717468262,-4.054510116577148,-3.8892147541046143,-3.72391939163208,-3.558623790740967,-3.3933284282684326,-3.2280330657958984,-3.062737464904785,-2.897442102432251,-2.732146739959717,-2.5668511390686035,-2.4015557765960693,-2.236260414123535,-2.070964813232422,-1.9056694507598877,-1.7403740882873535,-1.5750786066055298,-1.409783124923706,-1.2444877624511719,-1.0791922807693481,-0.9138968586921692,-0.7486014366149902,-0.5833059549331665,-0.41801053285598755,-0.2527151107788086,-0.08741965889930725,0.0778757780790329,0.24317121505737305,0.408466637134552,0.573762059211731,0.7390575408935547,0.9043529629707336,1.0696483850479126,1.2349438667297363,1.4002392292022705,1.5655347108840942,1.730830192565918,1.8961255550384521,2.0614209175109863,2.2267165184020996,2.392011880874634,2.557307243347168,2.7226028442382812,2.8878982067108154,3.0531935691833496,3.218489170074463,3.383784532546997,3.5490798950195312,3.7143754959106445,3.8796708583831787,4.044966220855713,4.210261821746826,4.375556945800781,4.5408525466918945,4.706148147583008,4.871443271636963,5.036738872528076,5.2020344734191895,5.3673295974731445,5.532625198364258],"_type":"histogram"},"gradients/graph_23numerical_layer.2.bias":{"_type":"histogram","values":[1,0,0,0,0,0,0,0,0,0,0,0,0,0,0,0,0,0,0,0,0,0,0,0,1,0,1,1,2,1,0,0,0,0,1,0,0,0,0,0,0,0,0,0,0,0,0,0,1,0,0,0,0,0,0,0,0,0,0,0,0,0,0,1],"bins":[-2.561137080192566e-09,-2.4774635676294565e-09,-2.393790055066347e-09,-2.3101165425032377e-09,-2.2264430299401283e-09,-2.142769517377019e-09,-2.0590960048139095e-09,-1.9754224922508e-09,-1.8917489796876907e-09,-1.8080754671245813e-09,-1.724401954561472e-09,-1.6407284419983625e-09,-1.5570549294352531e-09,-1.4733814168721437e-09,-1.3897079043090343e-09,-1.306034391745925e-09,-1.2223608791828156e-09,-1.1386873666197062e-09,-1.0550138540565968e-09,-9.713403414934874e-10,-8.87666828930378e-10,-8.039933163672686e-10,-7.203198038041592e-10,-6.366462912410498e-10,-5.529727786779404e-10,-4.69299266114831e-10,-3.8562575355172157e-10,-3.019522409886122e-10,-2.1827872842550278e-10,-1.3460521586239338e-10,-5.093170329928398e-11,3.2741809263825417e-11,1.1641532182693481e-10,2.000888343900442e-10,2.837623469531536e-10,3.67435859516263e-10,4.511093720793724e-10,5.347828846424818e-10,6.184563972055912e-10,7.021299097687006e-10,7.8580342233181e-10,8.694769348949194e-10,9.531504474580288e-10,1.0368239600211382e-09,1.1204974725842476e-09,1.204170985147357e-09,1.2878444977104664e-09,1.3715180102735758e-09,1.4551915228366852e-09,1.5388650353997946e-09,1.622538547962904e-09,1.7062120605260134e-09,1.7898855730891228e-09,1.873559085652232e-09,1.9572325982153416e-09,2.040906110778451e-09,2.1245796233415604e-09,2.2082531359046698e-09,2.291926648467779e-09,2.3756001610308886e-09,2.459273673593998e-09,2.5429471861571074e-09,2.6266206987202168e-09,2.710294211283326e-09,2.7939677238464355e-09]},"gradients/graph_23fc_layers.0.bias":{"_type":"histogram","values":[3,1,0,0,1,0,1,1,0,2,1,0,4,3,7,2,3,4,2,8,7,14,9,4,4,11,1,6,5,8,0,5,1,0,1,1,2,2,1,1,0,0,0,1,0,0,0,0,0,0,0,0,0,0,0,0,0,0,0,0,0,0,0,1],"bins":[-1.076841726899147e-09,-1.0263647709507495e-09,-9.75887815002352e-10,-9.254108590539545e-10,-8.74933903105557e-10,-8.244569471571594e-10,-7.739799912087619e-10,-7.235030352603644e-10,-6.730260793119669e-10,-6.225491233635694e-10,-5.720721674151719e-10,-5.215952114667743e-10,-4.711182555183768e-10,-4.206412995699793e-10,-3.701643436215818e-10,-3.196873876731843e-10,-2.6921043172478676e-10,-2.1873347577638924e-10,-1.6825651982799172e-10,-1.177795638795942e-10,-6.730260793119669e-11,-1.6825651982799172e-11,3.3651303965598345e-11,8.412825991399586e-11,1.3460521586239338e-10,1.850821718107909e-10,2.355591277591884e-10,2.8603608370758593e-10,3.3651303965598345e-10,3.8698999560438097e-10,4.374669515527785e-10,4.87943907501176e-10,5.384208634495735e-10,5.88897819397971e-10,6.393747753463686e-10,6.898517312947661e-10,7.403286872431636e-10,7.908056431915611e-10,8.412825991399586e-10,8.917595550883561e-10,9.422365110367537e-10,9.927134669851512e-10,1.0431904229335487e-09,1.0936673788819462e-09,1.1441443348303437e-09,1.1946212907787412e-09,1.2450982467271388e-09,1.2955752026755363e-09,1.3460521586239338e-09,1.3965291145723313e-09,1.4470060705207288e-09,1.4974830264691263e-09,1.5479599824175239e-09,1.5984369383659214e-09,1.6489138943143189e-09,1.6993908502627164e-09,1.749867806211114e-09,1.8003447621595114e-09,1.850821718107909e-09,1.9012986740563065e-09,1.951775630004704e-09,2.0022525859531015e-09,2.052729541901499e-09,2.1032064978498966e-09,2.153683453798294e-09]},"parameters/graph_23numerical_layer.2.bias":{"_type":"histogram","values":[1,0,0,0,0,0,0,0,0,0,0,0,0,0,0,0,0,0,0,0,0,0,0,0,1,0,0,0,0,0,1,0,0,0,0,0,0,0,0,0,1,0,0,0,0,0,1,0,0,0,1,0,0,0,0,0,0,0,0,0,0,1,2,1],"bins":[-0.005009648855775595,-0.004910233896225691,-0.0048108184710145,-0.004711403511464596,-0.004611988086253405,-0.004512573126703501,-0.00441315770149231,-0.004313742741942406,-0.0042143273167312145,-0.004114912357181311,-0.0040154969319701195,-0.003916081972420216,-0.0038166665472090244,-0.003717251354828477,-0.0036178361624479294,-0.003518420970067382,-0.0034190057776868343,-0.0033195908181369305,-0.003220175625756383,-0.0031207604333758354,-0.003021345240995288,-0.0029219300486147404,-0.002822514856234193,-0.0027230996638536453,-0.002623684471473098,-0.0025242692790925503,-0.0024248540867120028,-0.0023254388943314552,-0.0022260237019509077,-0.00212660850957036,-0.0020271933171898127,-0.0019277781248092651,-0.0018283629324287176,-0.00172894774004817,-0.0016295325476676226,-0.001530117355287075,-0.0014307021629065275,-0.00133128697052598,-0.0012318717781454325,-0.001132456585764885,-0.0010330413933843374,-0.0009336262592114508,-0.0008342110668309033,-0.0007347958744503558,-0.0006353807402774692,-0.0005359655478969216,-0.0004365503555163741,-0.0003371351631358266,-0.00023771997075527906,-0.00013830477837473154,-3.8889600546099246e-05,6.0525584558490664e-05,0.00015994076966308057,0.0002593559620436281,0.00035877112532034516,0.0004581863177008927,0.0005576015100814402,0.0006570167024619877,0.0007564318948425353,0.0008558470872230828,0.0009552622213959694,0.001054677413776517,0.0011540926061570644,0.001253507798537612,0.0013529229909181595]},"gradients/graph_23fc_layers.4.weight":{"bins":[-0.04389515519142151,-0.04277736693620682,-0.04165957495570183,-0.04054178670048714,-0.03942399471998215,-0.038306206464767456,-0.037188418209552765,-0.036070626229047775,-0.034952837973833084,-0.033835045993328094,-0.0327172577381134,-0.03159946948289871,-0.030481677502393723,-0.029363887384533882,-0.02824609912931919,-0.02712830901145935,-0.02601051889359951,-0.02489272877573967,-0.02377493865787983,-0.022657150402665138,-0.021539360284805298,-0.020421570166945457,-0.019303780049085617,-0.018185989931225777,-0.017068199813365936,-0.015950411558151245,-0.014832621440291405,-0.013714831322431564,-0.012597041204571724,-0.011479252018034458,-0.010361461900174618,-0.009243672713637352,-0.00812588445842266,-0.007008094806224108,-0.005890305154025555,-0.004772515036165714,-0.003654725383967161,-0.002536935731768608,-0.0014191458467394114,-0.00030135607812553644,0.0008164336904883385,0.0019342234591022134,0.0030520132277160883,0.004169803112745285,0.005287592764943838,0.006405382417142391,0.007523172535002232,0.008640961721539497,0.009758751839399338,0.010876541957259178,0.011994331143796444,0.013112121261656284,0.01422991044819355,0.01534770056605339,0.01646549068391323,0.01758328080177307,0.018701069056987762,0.019818859174847603,0.020936649292707443,0.022054439410567284,0.023172229528427124,0.024290019646286964,0.025407807901501656,0.026525598019361496,0.027643388137221336],"_type":"histogram","values":[1,0,0,0,1,0,0,1,0,0,0,0,2,0,2,1,0,3,1,4,1,0,0,5,3,4,3,3,3,4,5,8,5,4,5,6,5,9,3,6,1,1,6,2,3,2,0,2,1,3,0,1,1,1,1,0,0,0,1,2,0,0,1,1]},"epoch":3,"_timestamp":1.726814890427152e+09,"parameters/graph_23fc_layers.0.weight":{"_type":"histogram","values":[2,0,0,0,2,1,2,3,3,1,9,12,15,25,45,59,57,85,84,103,104,127,132,126,141,125,129,123,126,118,133,123,119,121,141,135,136,140,114,133,123,123,135,99,78,59,59,40,33,18,6,4,3,3,1,0,0,1,0,0,0,0,0,1],"bins":[-0.35528460144996643,-0.34386008977890015,-0.3324355483055115,-0.3210110366344452,-0.3095865249633789,-0.2981620132923126,-0.28673750162124634,-0.27531296014785767,-0.2638884484767914,-0.2524639368057251,-0.24103941023349762,-0.22961488366127014,-0.21819037199020386,-0.20676586031913757,-0.1953413337469101,-0.18391680717468262,-0.17249229550361633,-0.16106778383255005,-0.14964325726032257,-0.1382187306880951,-0.1267942190170288,-0.11536969989538193,-0.10394518077373505,-0.09252066165208817,-0.08109614253044128,-0.0696716234087944,-0.05824710428714752,-0.04682258516550064,-0.03539806604385376,-0.02397354692220688,-0.012549027800559998,-0.0011245086789131165,0.010299980640411377,0.021724499762058258,0.03314901888370514,0.04457353800535202,0.0559980571269989,0.06742257624864578,0.07884709537029266,0.09027161449193954,0.10169613361358643,0.1131206527352333,0.12454517185688019,0.13596969842910767,0.14739421010017395,0.15881872177124023,0.1702432483434677,0.1816677749156952,0.19309228658676147,0.20451679825782776,0.21594132483005524,0.22736585140228271,0.238790363073349,0.2502148747444153,0.26163941621780396,0.27306392788887024,0.2844884395599365,0.2959129512310028,0.3073374629020691,0.31876200437545776,0.33018651604652405,0.34161102771759033,0.353035569190979,0.3644600808620453,0.3758845925331116]},"gradients/graph_23bus_emb.weight":{"_type":"histogram","values":[3,1,2,4,2,2,4,7,12,9,27,28,35,49,74,102,161,185,307,511,726,1073,1740,2824,4504,8411,1.416685e+06,27842,7816,4291,2605,1708,1061,715,508,334,232,164,145,102,56,56,28,25,14,12,6,8,5,2,3,2,1,0,0,0,0,0,0,0,0,0,0,1],"bins":[-4.3751315388362855e-05,-4.2130497604375705e-05,-4.0509679820388556e-05,-3.88888583984226e-05,-3.726804061443545e-05,-3.56472228304483e-05,-3.402640504646115e-05,-3.240558362449519e-05,-3.0784765840508044e-05,-2.9163948056520894e-05,-2.7543130272533745e-05,-2.592231066955719e-05,-2.4301492885570042e-05,-2.268067328259349e-05,-2.105985549860634e-05,-1.9439035895629786e-05,-1.7818218111642636e-05,-1.6197400327655487e-05,-1.4576580724678934e-05,-1.2955762031197082e-05,-1.1334943337715231e-05,-9.714125553728081e-06,-8.09330686024623e-06,-6.4724881667643785e-06,-4.851669473282527e-06,-3.230850779800676e-06,-1.6100323136924999e-06,1.0786266102513764e-08,1.6316048458975274e-06,3.2524235393793788e-06,4.873241778113879e-06,6.494060471595731e-06,8.114879165077582e-06,9.735697858559433e-06,1.1356516552041285e-05,1.2977335245523136e-05,1.4598153939004987e-05,1.6218971722992137e-05,1.783979132596869e-05,1.946060910995584e-05,2.1081428712932393e-05,2.2702246496919543e-05,2.4323064280906692e-05,2.5943883883883245e-05,2.7564701667870395e-05,2.9185521270846948e-05,3.08063390548341e-05,3.242715683882125e-05,3.40479746228084e-05,3.5668796044774354e-05,3.72896138287615e-05,3.891043161274865e-05,4.05312493967358e-05,4.215207081870176e-05,4.377288860268891e-05,4.539370638667606e-05,4.701452417066321e-05,4.863534195465036e-05,5.0256163376616314e-05,5.1876981160603464e-05,5.349779894459061e-05,5.511861672857776e-05,5.673943815054372e-05,5.836025593453087e-05,5.998107371851802e-05]},"gradients/graph_23fc_layers.1.weight":{"values":[1,0,0,0,0,0,0,1,0,0,1,1,0,1,0,0,0,1,1,3,1,1,3,2,1,3,5,9,8,13,8,10,11,7,6,5,9,3,2,3,1,0,1,1,1,0,1,0,0,0,1,0,0,0,1,0,0,0,0,0,0,0,0,1],"bins":[-0.0019382804166525602,-0.001878643175587058,-0.001819005934521556,-0.0017593688098713756,-0.0016997315688058734,-0.0016400943277403712,-0.0015804572030901909,-0.0015208199620246887,-0.0014611827209591866,-0.0014015454798936844,-0.0013419082388281822,-0.0012822711141780019,-0.0012226338731124997,-0.0011629966320469975,-0.0011033595073968172,-0.001043722266331315,-0.0009840850252658129,-0.0009244477842003107,-0.0008648106013424695,-0.0008051734184846282,-0.000745536177419126,-0.0006858989363536239,-0.0006262617534957826,-0.0005666245706379414,-0.0005069873295724392,-0.0004473501176107675,-0.0003877129056490958,-0.00032807569368742406,-0.00026843848172575235,-0.00020880126976408064,-0.00014916405780240893,-8.952684584073722e-05,-2.9889633879065514e-05,2.9747578082606196e-05,8.93847900442779e-05,0.00014902200200594962,0.00020865921396762133,0.00026829642592929304,0.00032793363789096475,0.00038757084985263646,0.00044720806181430817,0.0005068453028798103,0.0005664824857376516,0.0006261196685954928,0.000685756909660995,0.0007453941507264972,0.0008050313335843384,0.0008646685164421797,0.0009243057575076818,0.000983942998573184,0.0010435802396386862,0.0011032173642888665,0.0011628546053543687,0.0012224918464198709,0.0012821289710700512,0.0013417662121355534,0.0014014034532010555,0.0014610406942665577,0.0015206779353320599,0.0015803150599822402,0.0016399523010477424,0.0016995895421132445,0.0017592266667634249,0.001818863907828927,0.0018785011488944292],"_type":"histogram"},"gradients/graph_23numerical_layer.2.weight":{"values":[1,0,0,0,0,0,1,0,0,0,0,0,0,0,0,0,0,0,1,0,0,1,0,0,1,0,0,0,0,0,0,0,0,0,0,0,0,0,0,0,0,0,0,1,0,0,0,0,1,0,0,0,0,0,0,0,0,1,0,0,0,1,0,1],"bins":[-0.003063756972551346,-0.002997861010953784,-0.0029319648165255785,-0.0028660688549280167,-0.002800172893330455,-0.002734276931732893,-0.0026683807373046875,-0.0026024847757071257,-0.002536588814109564,-0.0024706926196813583,-0.0024047966580837965,-0.0023389006964862347,-0.002273004734888673,-0.0022071085404604673,-0.0021412125788629055,-0.0020753166172653437,-0.002009420655667782,-0.0019435244612395763,-0.0018776284996420145,-0.0018117324216291308,-0.001745836460031569,-0.0016799403820186853,-0.0016140444204211235,-0.0015481483424082398,-0.0014822522643953562,-0.0014163563027977943,-0.0013504602247849107,-0.0012845642631873488,-0.0012186681851744652,-0.0011527722235769033,-0.0010868761455640197,-0.0010209801839664578,-0.0009550839895382524,-0.0008891879697330296,-0.0008232919499278069,-0.0007573959301225841,-0.0006914999103173614,-0.0006256038323044777,-0.0005597078124992549,-0.0004938117926940322,-0.00042791577288880944,-0.0003620197530835867,-0.00029612373327836394,-0.00023022768436931074,-0.000164331664564088,-9.843563748290762e-05,-3.253961040172726e-05,3.3356416679453105e-05,9.925244376063347e-05,0.00016514846356585622,0.0002310444979229942,0.0002969405322801322,0.0003628365520853549,0.0004287325718905777,0.0004946286207996309,0.0005605246406048536,0.0006264206604100764,0.0006923166802152991,0.0007582127000205219,0.0008241087198257446,0.0008900047978386283,0.000955900817643851,0.0010217968374490738,0.0010876927990466356,0.0011535888770595193],"_type":"histogram"},"gradients/graph_23numerical_layer.0.bias":{"values":[1,0,0,0,0,0,0,1,1,0,0,0,0,1,0,0,1,0,1,1,0,0,0,0,0,0,1,0,0,0,0,0,0,0,1,0,0,0,0,0,0,0,0,0,0,0,0,0,0,0,0,0,0,0,0,0,0,0,0,0,0,0,0,1],"bins":[-0.0023244088515639305,-0.0021793334744870663,-0.002034258097410202,-0.001889182603918016,-0.0017441071104258299,-0.0015990317333489656,-0.0014539563562721014,-0.0013088808627799153,-0.001163805485703051,-0.0010187301086261868,-0.0008736546151340008,-0.0007285792380571365,-0.0005835038027726114,-0.0004384283674880862,-0.0002933529613073915,-0.0001482775405747816,-3.202119842171669e-06,0.00014187330089043826,0.0002869487216230482,0.0004320241278037429,0.000577099563088268,0.0007221749983727932,0.0008672503754496574,0.0010123258689418435,0.0011574012460187078,0.001302476623095572,0.001447552116587758,0.0015926274936646223,0.0017377028707414865,0.0018827783642336726,0.0020278538577258587,0.002172929234802723,0.002318004611879587,0.0024630799889564514,0.0026081553660333157,0.0027532309759408236,0.002898306353017688,0.003043381730094552,0.0031884571071714163,0.0033335324842482805,0.0034786080941557884,0.0036236834712326527,0.003768758848309517,0.003913834225386381,0.004058909602463245,0.00420398497954011,0.004349060356616974,0.004494135733693838,0.004639211110770702,0.004784286953508854,0.004929362330585718,0.005074437707662582,0.005219513084739447,0.005364588461816311,0.005509663838893175,0.005654739215970039,0.005799814593046904,0.005944889970123768,0.006089965347200632,0.006235041189938784,0.006380116567015648,0.006525191944092512,0.006670267321169376,0.006815342698246241,0.006960418075323105],"_type":"histogram"},"_wandb":{"runtime":631},"parameters/graph_23fc_layers.4.weight":{"values":[2,2,0,0,2,0,0,1,1,0,1,1,1,1,1,3,3,2,1,4,4,2,5,3,4,1,1,4,2,1,1,0,0,2,1,4,1,1,4,3,1,3,4,5,5,5,5,3,4,3,2,6,1,2,2,1,2,0,0,0,0,1,1,2],"bins":[-0.07355772703886032,-0.07142697274684906,-0.0692962184548378,-0.06716546416282654,-0.06503470987081528,-0.06290395557880402,-0.060773201286792755,-0.058642446994781494,-0.05651169270277023,-0.054380934685468674,-0.05225018039345741,-0.05011942610144615,-0.04798867180943489,-0.04585791751742363,-0.04372716322541237,-0.04159640893340111,-0.03946565464138985,-0.037334900349378586,-0.035204146057367325,-0.033073391765356064,-0.030942637473344803,-0.028811881318688393,-0.02668112702667713,-0.02455037273466587,-0.02241961844265461,-0.02028886415064335,-0.018158109858632088,-0.016027355566620827,-0.013896600343286991,-0.01176584605127573,-0.009635090827941895,-0.0075043365359306335,-0.0053735822439193726,-0.003242827719077468,-0.0011120731942355633,0.0010186813306063414,0.003149435855448246,0.005280190147459507,0.007410944905132055,0.009541699662804604,0.011672453954815865,0.013803208246827126,0.015933962538838387,0.018064716830849648,0.020195472985506058,0.02232622727751732,0.02445698156952858,0.02658773586153984,0.0287184901535511,0.030849244445562363,0.032979998737573624,0.035110753029584885,0.037241507321596146,0.03937226161360741,0.04150301590561867,0.04363377019762993,0.04576452821493149,0.04789528250694275,0.05002603679895401,0.05215679109096527,0.05428754538297653,0.05641829967498779,0.058549053966999054,0.060679808259010315,0.06281056255102158],"_type":"histogram"},"parameters/graph_23fc_layers.1.bias":{"bins":[-0.09714080393314362,-0.0936402678489685,-0.0901397317647934,-0.08663919568061829,-0.08313865959644318,-0.07963812351226807,-0.07613759487867355,-0.07263705879449844,-0.06913652271032333,-0.06563598662614822,-0.062135450541973114,-0.058634914457798004,-0.055134378373622894,-0.051633842289447784,-0.04813330993056297,-0.04463277384638786,-0.04113223776221275,-0.03763170167803764,-0.034131165593862534,-0.030630631372332573,-0.027130097150802612,-0.023629561066627502,-0.020129024982452393,-0.016628490760922432,-0.013127954676747322,-0.009627419523894787,-0.006126883905380964,-0.0026263485196977854,0.0008741868659853935,0.004374722018837929,0.007875258103013039,0.011375793255865574,0.014876328408718109,0.01837686449289322,0.02187739871442318,0.02537793479859829,0.02887846902012825,0.03237900510430336,0.03587954118847847,0.03938007727265358,0.04288060963153839,0.0463811457157135,0.04988168179988861,0.05338221788406372,0.05688275396823883,0.06038329005241394,0.06388382613658905,0.06738436222076416,0.07088489830493927,0.07438542693853378,0.07788596302270889,0.081386499106884,0.08488703519105911,0.08838757127523422,0.09188810735940933,0.09538864344358444,0.09888917952775955,0.10238971561193466,0.10589025169610977,0.10939078032970428,0.1128913164138794,0.1163918524980545,0.11989238858222961,0.12339292466640472,0.12689346075057983],"_type":"histogram","values":[1,0,0,0,0,0,0,0,0,1,1,2,0,0,5,2,2,0,5,12,12,6,7,5,7,3,5,10,5,13,7,1,5,1,4,1,0,1,0,0,0,2,0,0,1,0,0,0,0,0,0,0,0,0,0,0,0,0,0,0,0,0,0,1]},"parameters/graph_23numerical_layer.2.weight":{"_type":"histogram","values":[1,0,1,0,0,0,0,0,0,1,0,0,0,0,0,0,0,0,0,0,0,3,0,0,0,1,0,0,0,0,0,0,0,0,0,0,1,0,0,0,1,0,0,0,0,0,0,0,0,0,0,0,0,0,0,0,0,0,0,0,0,0,0,1],"bins":[0.9668745398521423,0.970342218875885,0.9738098978996277,0.9772776365280151,0.9807453155517578,0.9842129945755005,0.9876806735992432,0.9911484122276306,0.9946160912513733,0.998083770275116,1.0015515089035034,1.005019187927246,1.0084868669509888,1.0119545459747314,1.0154222249984741,1.0188899040222168,1.0223575830459595,1.0258252620697021,1.0292930603027344,1.032760739326477,1.0362284183502197,1.0396960973739624,1.043163776397705,1.0466314554214478,1.0500991344451904,1.053566813468933,1.0570346117019653,1.060502290725708,1.0639699697494507,1.0674376487731934,1.070905327796936,1.0743730068206787,1.0778406858444214,1.081308364868164,1.0847760438919067,1.088243842124939,1.0917115211486816,1.0951792001724243,1.098646879196167,1.1021145582199097,1.1055822372436523,1.109049916267395,1.1125175952911377,1.11598539352417,1.1194530725479126,1.1229207515716553,1.126388430595398,1.1298561096191406,1.1333237886428833,1.136791467666626,1.1402591466903687,1.1437268257141113,1.1471946239471436,1.1506623029708862,1.154129981994629,1.1575976610183716,1.1610653400421143,1.164533019065857,1.1680006980895996,1.1714683771133423,1.1749361753463745,1.1784038543701172,1.1818715333938599,1.1853392124176025,1.1888068914413452]},"iteration":244,"parameters/graph_23numerical_layer.0.weight":{"bins":[-0.48688456416130066,-0.47041457891464233,-0.4539445638656616,-0.4374745786190033,-0.42100459337234497,-0.40453460812568665,-0.3880646228790283,-0.3715946078300476,-0.3551246225833893,-0.33865463733673096,-0.32218462228775024,-0.3057146370410919,-0.2892446517944336,-0.27277466654777527,-0.25630468130111694,-0.23983466625213623,-0.2233646810054779,-0.20689469575881958,-0.19042469561100006,-0.17395469546318054,-0.15748471021652222,-0.1410147249698639,-0.12454472482204437,-0.10807473212480545,-0.09160473942756653,-0.0751347467303276,-0.058664754033088684,-0.04219476133584976,-0.02572476863861084,-0.009254775941371918,0.007215216755867004,0.023685209453105927,0.04015517234802246,0.05662516504526138,0.0730951577425003,0.08956515043973923,0.10603514313697815,0.12250513583421707,0.138975128531456,0.1554451286792755,0.17191511392593384,0.18838509917259216,0.20485509932041168,0.2213250994682312,0.23779508471488953,0.25426506996154785,0.27073508501052856,0.2872050702571869,0.3036750555038452,0.32014504075050354,0.33661502599716187,0.3530850410461426,0.3695550262928009,0.38602501153945923,0.40249502658843994,0.41896501183509827,0.4354349970817566,0.4519049823284149,0.46837496757507324,0.48484498262405396,0.5013149976730347,0.5177849531173706,0.5342549681663513,0.5507249236106873,0.567194938659668],"_type":"histogram","values":[1,1,1,1,1,0,0,0,0,1,1,1,1,2,1,1,1,0,1,3,0,1,3,1,0,2,2,2,4,1,2,1,1,0,0,1,0,0,4,1,1,0,0,0,1,0,0,0,1,0,0,0,0,2,0,0,0,0,0,0,0,0,0,1]},"gradients/graph_23fc_layers.0.weight":{"values":[1,0,0,1,0,1,2,2,0,3,6,6,2,6,3,5,6,10,10,16,20,16,39,38,48,60,72,93,135,150,204,261,257,529,419,322,260,207,141,110,93,80,50,21,30,28,18,15,6,7,9,4,7,3,2,0,1,1,2,0,0,1,0,1],"bins":[-0.005152647849172354,-0.005000847391784191,-0.004849046468734741,-0.004697246011346579,-0.004545445088297129,-0.004393644630908966,-0.004241843707859516,-0.0040900432504713535,-0.003938242793083191,-0.003786441870033741,-0.0036346411798149347,-0.0034828404895961285,-0.003331040032207966,-0.0031792393419891596,-0.0030274386517703533,-0.002875637961551547,-0.002723837271332741,-0.0025720365811139345,-0.0024202358908951283,-0.002268435200676322,-0.0021166345104575157,-0.001964834053069353,-0.0018130333628505468,-0.0016612326726317406,-0.0015094319824129343,-0.001357631292194128,-0.0012058306019753218,-0.0010540300281718373,-0.0009022293379530311,-0.0007504286477342248,-0.0005986280157230794,-0.00044682735460810363,-0.00029502715915441513,-0.00014322649803943932,8.57416307553649e-06,0.0001603748241905123,0.0003121754853054881,0.0004639761464204639,0.0006157768075354397,0.0007675774395465851,0.0009193781297653913,0.0010711788199841976,0.0012229795102030039,0.0013747800840064883,0.0015265807742252946,0.0016783814644441009,0.0018301820382475853,0.0019819827284663916,0.002133783418685198,0.002285584108904004,0.0024373847991228104,0.0025891854893416166,0.002740986179560423,0.0028927866369485855,0.0030445873271673918,0.003196388017386198,0.0033481887076050043,0.0034999893978238106,0.003651790088042617,0.003803590778261423,0.003955391235649586,0.004107192158699036,0.004258992616087198,0.004410793539136648,0.004562593996524811],"_type":"histogram"},"parameters/graph_23bus_emb.weight":{"values":[1,1,2,4,4,8,26,36,60,150,229,369,665,976,1739,2649,3941,5787,8325,11709,15812,20923,27343,34190,42722,51086,60231,68705,77007,84524,89001,92224,93741,92021,88554,83300,76285,67965,59380,50402,41954,33714,26707,20273,15231,11219,8083,5572,3825,2423,1558,1064,629,400,210,125,83,28,21,6,7,0,0,1],"bins":[-5.082795143127441,-4.926176071166992,-4.769557476043701,-4.612938404083252,-4.456319332122803,-4.299700736999512,-4.1430816650390625,-3.9864628314971924,-3.8298439979553223,-3.673224925994873,-3.516606092453003,-3.359987258911133,-3.2033681869506836,-3.0467493534088135,-2.8901305198669434,-2.733511447906494,-2.576892614364624,-2.420273780822754,-2.2636547088623047,-2.1070358753204346,-1.9504170417785645,-1.7937980890274048,-1.6371791362762451,-1.480560302734375,-1.3239413499832153,-1.1673223972320557,-1.0107035636901855,-0.8540846109390259,-0.697465717792511,-0.5408468246459961,-0.3842279016971588,-0.22760899364948273,-0.07099008560180664,0.08562882244586945,0.24224773049354553,0.3988666534423828,0.5554855465888977,0.7121044397354126,0.8687233924865723,1.0253422260284424,1.181961178779602,1.3385801315307617,1.4951989650726318,1.6518179178237915,1.8084368705749512,1.9650557041168213,2.1216745376586914,2.2782936096191406,2.4349124431610107,2.591531276702881,2.74815034866333,2.9047691822052,3.0613880157470703,3.2180070877075195,3.3746259212493896,3.5312447547912598,3.687863826751709,3.844482660293579,4.001101493835449,4.157720565795898,4.3143391609191895,4.470958232879639,4.627577304840088,4.784195899963379,4.940814971923828],"_type":"histogram"},"gradients/graph_23user_emb.weight":{"bins":[-5.888253144803457e-05,-5.732937279390171e-05,-5.577621777774766e-05,-5.42230591236148e-05,-5.2669900469481945e-05,-5.1116745453327894e-05,-4.9563586799195036e-05,-4.8010431783040985e-05,-4.645727312890813e-05,-4.490411447477527e-05,-4.335095945862122e-05,-4.179780080448836e-05,-4.024464578833431e-05,-3.869148713420145e-05,-3.7138328480068594e-05,-3.5585173463914543e-05,-3.4032014809781685e-05,-3.247885615564883e-05,-3.092570113949478e-05,-2.937254248536192e-05,-2.7819385650218464e-05,-2.626622881507501e-05,-2.4713070160942152e-05,-2.3159913325798698e-05,-2.1606756490655243e-05,-2.005359965551179e-05,-1.8500442820368335e-05,-1.6947284166235477e-05,-1.5394127331092022e-05,-1.3840970495948568e-05,-1.2287812751310412e-05,-1.0734655006672256e-05,-9.181498171528801e-06,-7.628340881637996e-06,-6.075183591747191e-06,-4.5220263018563855e-06,-2.9688690119655803e-06,-1.415711722074775e-06,1.3744556781603023e-07,1.6906028577068355e-06,3.2437601475976408e-06,4.796917437488446e-06,6.350074727379251e-06,7.903232472017407e-06,9.456389307160862e-06,1.1009546142304316e-05,1.2562703886942472e-05,1.4115861631580628e-05,1.5669018466724083e-05,1.7222175301867537e-05,1.877533213701099e-05,2.032849079114385e-05,2.1881647626287304e-05,2.3434804461430758e-05,2.4987963115563616e-05,2.654111995070707e-05,2.8094276785850525e-05,2.964743362099398e-05,3.1200590456137434e-05,3.275374911027029e-05,3.430690412642434e-05,3.58600627805572e-05,3.741322143469006e-05,3.896637645084411e-05,4.051953510497697e-05],"_type":"histogram","values":[1,0,0,0,0,0,0,0,0,0,1,0,3,1,2,0,2,12,6,15,18,26,25,39,62,91,126,172,237,358,494,759,1226,1827,2932,5083,9388,2.806062e+06,21165,8544,4677,2759,1724,1123,724,431,337,251,147,99,73,36,34,18,17,10,11,4,3,1,1,0,2,1]}}